-8.155678957700729370e-02,-2.769887447357177734e-02,1.285161543637514114e-02,-3.006883338093757629e-02,5.811192467808723450e-02,-4.039079323410987854e-02,3.530225157737731934e-02,-1.106869578361511230e-01,-3.529765829443931580e-02,-3.919610287994146347e-03,-1.578007079660892487e-02,-3.919909521937370300e-02,-1.547279395163059235e-02,1.040938403457403183e-02,2.886504866182804108e-02,5.574428662657737732e-02,-3.064552322030067444e-02,5.576056241989135742e-02,5.752239958383142948e-04,1.024093385785818100e-02,7.605326920747756958e-02,-3.283543512225151062e-02,-7.875467836856842041e-02,-3.381965309381484985e-02,2.809213474392890930e-02,7.744713872671127319e-02,-5.780080705881118774e-02,-5.472996830940246582e-02,3.632317110896110535e-02,2.178565971553325653e-02,-8.579397574067115784e-03,1.121753826737403870e-02,-9.425435215234756470e-02,5.695778876543045044e-02,3.250115737318992615e-02,-2.498165145516395569e-02,-3.080475144088268280e-03,3.275426477193832397e-02,6.493540108203887939e-02,-1.316646393388509750e-02,-2.359029650688171387e-02,-4.538959357887506485e-03,7.395341992378234863e-02,-5.628332123160362244e-02,-5.486600473523139954e-02,-1.036228053271770477e-02,-1.862324588000774384e-02,1.554594957269728184e-03,2.974441275000572205e-03,-1.668431609869003296e-02,5.915479268878698349e-03,-7.260454352945089340e-03,-4.514563456177711487e-02,-7.770755141973495483e-02,1.631090766750276089e-03,3.079866804182529449e-02,-5.372665077447891235e-02,1.707988046109676361e-02,8.950442075729370117e-03,6.901030242443084717e-02,-1.612459495663642883e-02,1.348158717155456543e-02,-1.046938076615333557e-02,2.076595462858676910e-02,4.923415184020996094e-02,-7.859515398740768433e-02,2.133747003972530365e-02,4.553440213203430176e-02,-1.807441748678684235e-02,-6.726805120706558228e-02,-2.038790099322795868e-02,-3.278523311018943787e-02,-1.353235449641942978e-02,-5.287127569317817688e-02,8.401880972087383270e-03,1.432651747018098831e-02,5.755279585719108582e-02,-1.851603272370994091e-03,-1.485256105661392212e-01,9.266897290945053101e-02,-1.500828005373477936e-02,-1.131969839334487915e-01,2.030402235686779022e-02,6.099221855401992798e-02,-4.151665791869163513e-02,6.503567099571228027e-02,-3.485869988799095154e-02,-1.373628526926040649e-02,2.137036249041557312e-02,1.378910243511199951e-01,3.263276070356369019e-02,2.236404269933700562e-02,1.975933462381362915e-02,5.164593458175659180e-02,-7.240401208400726318e-02,-9.130965918302536011e-02,9.741060785017907619e-04,6.960140913724899292e-02,-1.704058349132537842e-01,2.428377233445644379e-02,9.793322533369064331e-02,5.234537273645401001e-02,1.049345284700393677e-01,-2.714633941650390625e-02,3.781573101878166199e-02,-6.760885566473007202e-02,-8.421154320240020752e-02,1.206748485565185547e-01,6.971412152051925659e-02,-5.653965286910533905e-03,8.186563849449157715e-03,-2.242708764970302582e-02,1.718067750334739685e-02,1.387054473161697388e-01,4.326685890555381775e-02,-4.049729928374290466e-02,2.548571676015853882e-03,-7.682281732559204102e-02,-4.452724009752273560e-03,-2.274303697049617767e-02,3.799713775515556335e-02,1.728528551757335663e-02,7.759717293083667755e-03,7.343464344739913940e-02,-3.380903974175453186e-02,2.867628075182437897e-02,-1.899757795035839081e-02,-4.975852090865373611e-03
-3.703521937131881714e-02,-1.502569299191236496e-02,3.590503707528114319e-02,-2.333024702966213226e-02,-9.123466908931732178e-02,-6.153203919529914856e-02,5.660660192370414734e-02,1.875372976064682007e-02,-4.436063393950462341e-02,1.948049291968345642e-03,3.354993462562561035e-02,-4.994400963187217712e-02,-1.182237360626459122e-02,-2.545509673655033112e-02,3.938087448477745056e-02,-8.321586064994335175e-03,-5.381594225764274597e-02,-3.567818552255630493e-02,2.253289707005023956e-02,2.204155735671520233e-02,1.093933135271072388e-01,-8.689691312611103058e-03,2.631850354373455048e-02,3.194003924727439880e-02,6.178026273846626282e-02,-4.827137291431427002e-02,9.948281198740005493e-02,1.674018427729606628e-02,-4.332475736737251282e-02,-6.504842080175876617e-03,-4.339513927698135376e-02,1.535624964162707329e-03,-8.171713910996913910e-03,-6.844922155141830444e-02,-4.938934929668903351e-03,1.100274175405502319e-02,3.132654726505279541e-02,4.214855656027793884e-02,1.763728447258472443e-02,-1.427084673196077347e-02,-9.072629362344741821e-02,4.789182450622320175e-03,-7.696723192930221558e-02,5.456530675292015076e-02,-3.386240825057029724e-02,-1.750992797315120697e-02,4.229248687624931335e-02,-1.176255382597446442e-02,7.174596935510635376e-02,-7.967668771743774414e-02,-2.633183635771274567e-02,6.377365440130233765e-02,6.274332851171493530e-02,-6.019721180200576782e-02,5.896528437733650208e-02,-1.182201877236366272e-02,1.458559837192296982e-02,-7.797078695148229599e-03,-6.423094868659973145e-02,-1.668910086154937744e-01,-4.193637147545814514e-02,5.380341783165931702e-03,-6.105005368590354919e-02,4.763840138912200928e-02,5.288982018828392029e-02,2.740822732448577881e-02,-8.592815138399600983e-03,3.986234217882156372e-02,-4.789545014500617981e-02,-1.471549738198518753e-02,-1.953406957909464836e-03,6.122967600822448730e-02,5.702477414160966873e-03,-3.303766623139381409e-02,5.518685653805732727e-02,-1.705618761479854584e-02,1.339294910430908203e-01,-4.464177787303924561e-02,-7.923870347440242767e-03,1.069573406130075455e-02,-4.025435075163841248e-03,-1.094069853425025940e-01,4.540504515171051025e-02,-6.767305731773376465e-02,-1.189978718757629395e-01,-5.927232559770345688e-03,-5.021722242236137390e-02,-1.329659074544906616e-01,8.263031393289566040e-02,7.053855806589126587e-02,-1.704128645360469818e-02,1.213262509554624557e-02,9.957970120012760162e-03,-3.380537405610084534e-02,2.105576172471046448e-02,-3.445418551564216614e-02,4.333380237221717834e-02,1.091832667589187622e-01,-2.239568717777729034e-02,-3.890760615468025208e-02,1.901303045451641083e-02,2.831774391233921051e-02,-5.163282155990600586e-02,-2.437200583517551422e-02,3.485374525189399719e-02,2.275079675018787384e-02,3.340269997715950012e-02,1.447871793061494827e-02,-9.172778576612472534e-02,-4.344475269317626953e-02,-4.696733877062797546e-02,5.315725877881050110e-02,2.344475127756595612e-02,3.977427631616592407e-02,-3.969885036349296570e-02,3.800873085856437683e-02,-1.340930014848709106e-01,-3.111741878092288971e-02,-4.615507647395133972e-02,-3.172723576426506042e-02,-5.555554106831550598e-02,-4.388460516929626465e-02,-6.708741933107376099e-02,-7.874547690153121948e-02,-4.843808338046073914e-02,-2.721613086760044098e-02,-1.114576589316129684e-02,5.112711712718009949e-02
-7.375293225049972534e-02,-8.818379789590835571e-02,4.988573119044303894e-02,-3.038226440548896790e-02,2.536819316446781158e-02,-3.426621481776237488e-02,-7.209926843643188477e-02,1.935641653835773468e-02,-5.902020260691642761e-02,-9.726187214255332947e-03,-4.590576142072677612e-02,1.250047143548727036e-02,1.115113147534430027e-03,1.531949341297149658e-01,4.403617605566978455e-02,1.861436851322650909e-02,-2.262960746884346008e-02,3.735085949301719666e-02,1.903996430337429047e-02,-6.197426840662956238e-02,5.727174226194620132e-03,-2.446477534249424934e-03,-1.589619182050228119e-02,3.171261399984359741e-02,-2.147483266890048981e-02,4.513772949576377869e-02,1.446514483541250229e-02,-3.027817420661449432e-02,8.716672891750931740e-04,3.546340018510818481e-02,1.712356321513652802e-02,4.231614246964454651e-02,-3.330900147557258606e-02,4.486201331019401550e-03,5.643686279654502869e-02,-3.856294974684715271e-02,5.158832296729087830e-02,3.988996893167495728e-02,7.559980452060699463e-02,-1.464748661965131760e-02,1.980766095221042633e-02,9.704682976007461548e-02,5.716187506914138794e-02,-6.189474370330572128e-03,1.812282390892505646e-02,-2.722767554223537445e-02,3.268072754144668579e-02,-6.291206926107406616e-02,-1.551091950386762619e-02,-8.873768895864486694e-02,-1.155568938702344894e-02,6.468887906521558762e-03,4.447227343916893005e-02,1.958520524203777313e-02,4.161939397454261780e-02,-9.825590066611766815e-03,-1.101967506110668182e-02,-1.899602264165878296e-02,-6.617353856563568115e-02,6.517384201288223267e-02,-1.361456979066133499e-02,-6.847391370683908463e-03,-5.583350732922554016e-02,3.365113213658332825e-02,-1.630781032145023346e-02,1.880816929042339325e-02,3.699221089482307434e-02,-2.669801749289035797e-02,-2.030323259532451630e-02,6.792346248403191566e-04,-6.524371355772018433e-02,1.113233193755149841e-01,-1.006134971976280212e-01,-5.635304003953933716e-02,-1.890664920210838318e-02,1.418576855212450027e-02,1.076506357640028000e-02,-3.839866071939468384e-02,-2.028474397957324982e-02,7.242625206708908081e-02,-4.384733736515045166e-03,1.952933147549629211e-02,-3.122652135789394379e-02,-5.097027495503425598e-02,-3.051462769508361816e-02,6.582682579755783081e-02,-6.107323803007602692e-03,3.684726776555180550e-03,-1.623884961009025574e-02,-2.269156463444232941e-02,2.833004854619503021e-02,-5.171512439846992493e-02,2.801918983459472656e-02,-1.007012184709310532e-02,-6.635592877864837646e-02,3.310836479067802429e-02,-2.696898952126502991e-02,2.733171544969081879e-02,-3.413256630301475525e-02,5.690938327461481094e-03,-3.969535976648330688e-02,1.231581345200538635e-01,5.945254117250442505e-02,2.026536269113421440e-03,2.508561126887798309e-02,6.151868030428886414e-02,1.346688997000455856e-02,-1.163372769951820374e-02,-3.078417479991912842e-02,2.028722688555717468e-02,3.914011642336845398e-02,-5.760984960943460464e-03,4.148156568408012390e-02,2.870211936533451080e-02,4.327489435672760010e-02,-7.135935872793197632e-02,2.472734265029430389e-02,8.700235746800899506e-03,-1.053456915542483330e-03,2.315971255302429199e-02,-9.311588108539581299e-02,-3.705346211791038513e-02,1.036790758371353149e-01,-2.346808556467294693e-03,-1.243032440543174744e-01,-4.982673097401857376e-03,1.534911151975393295e-02,4.612787440419197083e-02
-1.235743612051010132e-02,-4.223723430186510086e-03,5.176230147480964661e-02,-6.174421310424804688e-02,4.375256225466728210e-02,4.600938037037849426e-02,1.200130768120288849e-02,-1.556402724236249924e-02,-5.328232049942016602e-02,6.551916897296905518e-02,8.994172513484954834e-02,-4.461416229605674744e-02,-1.848984509706497192e-02,1.598211377859115601e-02,7.930536568164825439e-02,-3.794162720441818237e-02,3.635641653090715408e-03,8.386569097638130188e-03,3.084064833819866180e-02,-3.547071665525436401e-02,-8.901651948690414429e-02,-1.239859964698553085e-02,8.985832333564758301e-02,4.043377935886383057e-02,2.611841261386871338e-02,1.293610502034425735e-02,4.666972160339355469e-02,3.496544435620307922e-02,-7.195698563009500504e-03,5.699352547526359558e-02,-4.706316068768501282e-02,-5.523448064923286438e-02,3.856445103883743286e-02,1.801887527108192444e-02,-1.140941008925437927e-01,-1.440935023128986359e-02,3.827539831399917603e-02,4.383416846394538879e-02,-5.200644209980964661e-02,6.544248200953006744e-03,3.281229408457875252e-03,8.062305301427841187e-02,-4.637625813484191895e-02,-2.239834889769554138e-02,-2.387429215013980865e-02,4.424894228577613831e-02,1.450825035572052002e-01,3.806681931018829346e-02,-4.885201528668403625e-02,-4.798157606273889542e-03,6.645147502422332764e-02,-9.691779501736164093e-03,1.202869322150945663e-02,-2.279226109385490417e-02,3.089930629357695580e-03,-1.162634417414665222e-02,-1.078251842409372330e-02,3.323916345834732056e-02,3.406568616628646851e-02,6.748266518115997314e-03,2.734229341149330139e-02,-3.789895400404930115e-02,-3.198570385575294495e-02,-5.673136189579963684e-02,-1.297111362218856812e-01,-6.967952847480773926e-02,1.756022684276103973e-02,1.724971085786819458e-02,-2.643763832747936249e-02,9.180691093206405640e-02,7.975377142429351807e-03,4.075360484421253204e-03,2.992253378033638000e-02,3.550983965396881104e-02,1.369404513388872147e-02,8.165317773818969727e-02,2.944572828710079193e-03,1.445992197841405869e-02,-9.989916533231735229e-02,1.420448417775332928e-03,7.520718872547149658e-02,-8.518622256815433502e-03,-8.232498168945312500e-02,-6.730137765407562256e-02,-7.832915335893630981e-02,-5.836592987179756165e-02,-9.467046707868576050e-03,3.633614256978034973e-02,-4.986773710697889328e-03,-2.971669659018516541e-03,2.830599807202816010e-02,7.811028510332107544e-02,-9.376644343137741089e-02,-8.789698779582977295e-02,-8.675007149577140808e-03,-5.702463537454605103e-02,-3.348186239600181580e-02,-8.988586068153381348e-02,-4.717965424060821533e-02,-2.265333570539951324e-02,1.143745556473731995e-01,4.961542412638664246e-02,7.008458673954010010e-02,3.645520657300949097e-02,-1.112870988436043262e-03,1.233262103050947189e-02,1.012349948287010193e-01,1.038327463902533054e-03,-8.085291832685470581e-02,5.861950665712356567e-02,-1.091133151203393936e-02,2.780717052519321442e-02,1.372896134853363037e-02,-3.629466227721422911e-04,1.184020005166530609e-02,-2.611604332923889160e-02,-6.956868618726730347e-02,1.002225559204816818e-02,-1.064410712569952011e-02,2.416918054223060608e-02,-4.416672512888908386e-02,-7.803723961114883423e-02,9.939228184521198273e-04,8.517875522375106812e-02,5.875214561820030212e-02,-3.715587779879570007e-02,-3.070621564984321594e-02,-2.144048176705837250e-02
-8.555970340967178345e-02,4.910828545689582825e-02,-3.815148398280143738e-02,-7.541831582784652710e-02,9.364105644635856152e-04,-1.794601045548915863e-02,3.734318166971206665e-02,-2.998002432286739349e-02,-1.992598921060562134e-02,-1.746441237628459930e-02,7.826194167137145996e-02,4.766225069761276245e-02,2.459198422729969025e-02,1.044609919190406799e-01,-1.377463247627019882e-02,2.793965674936771393e-02,-1.992208324372768402e-02,-4.642343148589134216e-02,4.696944728493690491e-02,4.577990621328353882e-02,8.457030169665813446e-03,-8.500021882355213165e-03,9.318769723176956177e-02,2.454114332795143127e-02,-9.714988619089126587e-02,-9.370545856654644012e-03,-1.052789911627769470e-01,6.184585765004158020e-02,6.235365755856037140e-03,-5.173215270042419434e-02,-9.831439703702926636e-02,-2.874328754842281342e-02,-3.686296567320823669e-02,-4.292010143399238586e-02,2.662530913949012756e-02,-5.696735531091690063e-02,2.746427059173583984e-02,-4.303071647882461548e-02,7.633835077285766602e-02,4.183487966656684875e-02,3.053727559745311737e-03,-4.536322876811027527e-02,-1.261843572137877345e-04,-4.354435577988624573e-02,2.653867378830909729e-02,4.640804976224899292e-02,5.774129554629325867e-02,9.671380743384361267e-03,-3.217900544404983521e-02,-7.171567063778638840e-03,1.314378250390291214e-02,5.774837732315063477e-02,7.296334952116012573e-02,-3.409144654870033264e-02,2.164609963074326515e-03,2.811164036393165588e-02,4.480620846152305603e-02,-3.310581669211387634e-02,5.496034026145935059e-02,-9.595992014510557055e-05,-2.371259592473506927e-02,-9.113839827477931976e-03,3.722705692052841187e-02,1.868920214474201202e-02,9.908729046583175659e-02,6.012827157974243164e-02,-9.600938856601715088e-02,-5.219573527574539185e-02,1.247266586869955063e-02,-3.302313759922981262e-02,5.171624943614006042e-02,1.002626772969961166e-02,3.017232380807399750e-02,2.451764233410358429e-02,-4.046575352549552917e-02,3.811782598495483398e-02,-3.769577667117118835e-02,-2.372817881405353546e-02,2.012790367007255554e-02,-5.093415733426809311e-03,3.894824907183647156e-02,6.749241799116134644e-02,5.012513324618339539e-02,3.637376648839563131e-04,3.013661876320838928e-02,-1.852286420762538910e-02,5.042851716279983521e-02,-1.309094429016113281e-01,1.756073557771742344e-03,9.266108274459838867e-02,1.454885024577379227e-02,5.910640954971313477e-02,-2.296726964414119720e-02,-1.025128141045570374e-01,2.745220204815268517e-03,-2.702471427619457245e-02,9.174433536827564240e-03,-9.826306486502289772e-04,-5.937761068344116211e-02,8.153616636991500854e-02,-4.423037637025117874e-03,-3.479440137743949890e-02,1.993573084473609924e-02,4.689285531640052795e-02,9.978904388844966888e-03,-4.597143456339836121e-02,-5.048486217856407166e-02,5.698791146278381348e-02,8.196268975734710693e-02,-3.254215791821479797e-02,-1.579323969781398773e-02,-3.535456955432891846e-02,5.169662460684776306e-02,5.337039753794670105e-02,2.277672849595546722e-02,-8.392333239316940308e-02,-1.614556275308132172e-02,-3.944557532668113708e-02,4.675156995654106140e-02,4.068804904818534851e-02,4.247979447245597839e-02,-5.423181224614381790e-03,6.468152161687612534e-03,-2.411347441375255585e-02,5.638092383742332458e-02,-1.064403206110000610e-01,3.801987692713737488e-02,7.218913175165653229e-03
7.679665926843881607e-03,7.066318392753601074e-02,1.510185189545154572e-02,-2.136653847992420197e-02,1.985558494925498962e-02,-6.373083591461181641e-02,-1.492647547274827957e-02,9.767346084117889404e-02,4.584886878728866577e-02,4.329807311296463013e-02,1.901890523731708527e-02,5.008232593536376953e-02,-6.128178909420967102e-02,1.808711700141429901e-02,-3.746677190065383911e-02,-3.310705348849296570e-02,-1.347448397427797318e-02,7.115211337804794312e-02,4.201306775212287903e-02,9.974160231649875641e-03,3.267388418316841125e-02,1.560020633041858673e-02,-2.403785102069377899e-02,-2.413140609860420227e-02,1.731866411864757538e-02,-7.700780034065246582e-02,-4.717126116156578064e-02,-1.173445861786603928e-02,-2.610531821846961975e-02,1.180961146019399166e-03,8.316189795732498169e-02,-1.032003387808799744e-02,-5.561390519142150879e-02,8.825387805700302124e-02,-8.553898334503173828e-02,7.247133553028106689e-02,8.266840013675391674e-04,-4.706922546029090881e-02,-1.176093816757202148e-01,-6.712277978658676147e-02,-3.317731991410255432e-02,-2.244180627167224884e-02,-2.079457230865955353e-02,-1.340863388031721115e-02,-4.563771933317184448e-02,-2.322327904403209686e-02,-6.570117175579071045e-02,-6.804323941469192505e-02,-2.518327906727790833e-02,4.699806682765483856e-03,-3.340104222297668457e-02,5.755744059570133686e-04,-1.149719953536987305e-01,-4.565324634313583374e-02,-4.095606505870819092e-03,6.388708949089050293e-03,2.442030981183052063e-02,-1.826376281678676605e-02,-2.122651226818561554e-02,-9.527574293315410614e-03,8.379754610359668732e-03,-4.342391714453697205e-02,-2.165834448533132672e-04,6.104555446654558182e-03,-4.414407908916473389e-02,-5.056507419794797897e-03,-3.514118865132331848e-02,-3.095073439180850983e-02,-2.902670297771692276e-03,-7.610800117254257202e-02,2.843615226447582245e-02,-4.669445008039474487e-02,-2.638118527829647064e-02,-9.169150888919830322e-02,3.010248206555843353e-02,-7.986185140907764435e-03,-4.596255347132682800e-02,9.431181475520133972e-03,2.280266955494880676e-03,-5.420965701341629028e-02,2.729036845266819000e-02,-2.566577494144439697e-02,-1.080404520034790039e-01,-4.295245558023452759e-02,2.083396725356578827e-02,-4.361734911799430847e-02,-8.750986307859420776e-02,3.477052971720695496e-02,6.203559786081314087e-02,-9.573654271662235260e-03,6.098705157637596130e-02,2.473164536058902740e-02,-2.161784283816814423e-02,2.907794155180454254e-02,1.928585767745971680e-02,9.610677510499954224e-02,2.786130271852016449e-02,3.671515360474586487e-02,-1.180792599916458130e-02,5.384381487965583801e-02,-3.142296895384788513e-02,4.464276134967803955e-02,-3.746283054351806641e-02,-4.052263498306274414e-02,7.132384926080703735e-03,-9.191540628671646118e-02,1.009709611535072327e-01,-1.078475713729858398e-01,7.511956989765167236e-02,2.660313248634338379e-02,1.730307377874851227e-02,-1.641691289842128754e-02,-1.675112731754779816e-02,4.180791229009628296e-02,2.442388981580734253e-02,-2.696717344224452972e-02,2.449119091033935547e-02,-1.400319393724203110e-02,7.037595659494400024e-02,2.378037758171558380e-02,5.562178418040275574e-02,-3.085863543674349785e-03,3.143420815467834473e-02,3.881165012717247009e-02,-2.346719615161418915e-02,-1.714077405631542206e-02,7.361768186092376709e-02,2.718404307961463928e-02
-1.764984987676143646e-02,6.273186206817626953e-02,-1.825768500566482544e-03,-4.049181565642356873e-02,-3.895866917446255684e-03,-6.009965762495994568e-02,2.408813498914241791e-02,1.072419062256813049e-01,-3.941090311855077744e-03,-2.684206701815128326e-02,-1.142381411045789719e-02,-9.968005865812301636e-02,-5.802858993411064148e-02,-1.202296242117881775e-01,-2.212992124259471893e-02,-3.632240463048219681e-03,3.598372265696525574e-02,1.337745785713195801e-02,-3.508472815155982971e-02,-6.917973048985004425e-03,1.322798617184162140e-02,-4.273680597543716431e-02,-1.112922374159097672e-02,6.279917806386947632e-02,4.055963084101676941e-02,-4.083251208066940308e-02,-1.775071956217288971e-03,-3.205288201570510864e-02,1.405198127031326294e-02,3.090049885213375092e-02,5.138796567916870117e-02,2.454473078250885010e-02,-5.061263591051101685e-02,1.866303198039531708e-02,-3.373064473271369934e-02,2.000726573169231415e-02,6.367064267396926880e-02,-9.502801112830638885e-03,-7.403732836246490479e-02,-4.102986678481101990e-02,6.225548312067985535e-02,-4.924106225371360779e-02,-1.928872615098953247e-02,3.308450058102607727e-02,-3.134186938405036926e-02,6.688296049833297729e-02,1.579384878277778625e-02,2.669228054583072662e-02,2.026659809052944183e-02,4.941777512431144714e-02,-1.411676872521638870e-03,5.290207266807556152e-02,-9.751120209693908691e-02,6.283047050237655640e-02,5.187124758958816528e-02,6.796033680438995361e-02,-4.686383530497550964e-02,1.377902925014495850e-02,1.016751211136579514e-02,-7.455191016197204590e-02,5.687415599822998047e-02,-3.344893082976341248e-02,2.409213036298751831e-02,1.403181441128253937e-02,-8.633277378976345062e-03,2.426826162263751030e-03,3.780256956815719604e-02,-2.365612238645553589e-02,-2.279482595622539520e-02,4.322487860918045044e-02,7.122084498405456543e-02,4.711093381047248840e-02,-2.842216193675994873e-02,-1.411112584173679352e-02,-4.512627143412828445e-03,2.526679076254367828e-02,-1.312427502125501633e-02,-1.245072670280933380e-02,5.948536470532417297e-02,2.384110353887081146e-02,8.916705101728439331e-02,2.351987361907958984e-02,-6.041209679096937180e-03,-5.154723767191171646e-03,3.785684704780578613e-02,2.409372292459011078e-02,-2.997334115207195282e-02,-7.395651191473007202e-03,-9.360359609127044678e-02,-8.341532945632934570e-02,-6.352635473012924194e-02,-2.959155477583408356e-02,-2.726104669272899628e-02,2.605548873543739319e-02,8.701857179403305054e-02,1.984392106533050537e-02,-1.278928387910127640e-02,-3.250526636838912964e-02,-5.879470705986022949e-02,8.977799676358699799e-03,6.088925153017044067e-02,9.620947390794754028e-02,-8.165883272886276245e-02,-1.186543926596641541e-01,3.747240081429481506e-02,-5.358111485838890076e-02,1.701040007174015045e-02,-6.597352772951126099e-02,1.303433091379702091e-04,-6.210626289248466492e-02,4.936536774039268494e-02,1.196803059428930283e-02,1.391664426773786545e-02,-5.512857437133789062e-02,-4.944584891200065613e-02,4.967070743441581726e-02,-4.556165263056755066e-02,-5.002124980092048645e-02,-7.870022952556610107e-02,1.026547979563474655e-02,-6.850387156009674072e-02,4.657154157757759094e-02,-3.354984521865844727e-02,1.559500861912965775e-02,-1.343082170933485031e-02,3.555225580930709839e-02,4.215218499302864075e-02,-4.626255109906196594e-02
3.942138701677322388e-02,4.343317821621894836e-02,4.931750521063804626e-02,-1.889348588883876801e-02,4.541895166039466858e-02,6.599263101816177368e-02,-4.321701452136039734e-02,-6.242034956812858582e-02,-1.702623791061341763e-03,1.825840957462787628e-02,-3.367542847990989685e-02,-1.163794542662799358e-03,1.181369554251432419e-02,1.129026189446449280e-01,-6.031386926770210266e-02,-5.084920674562454224e-02,1.587022468447685242e-02,-6.677917391061782837e-02,2.858314476907253265e-02,-1.368169323541224003e-03,4.720489960163831711e-03,-4.660734906792640686e-03,6.754898279905319214e-02,-4.905488714575767517e-02,-8.714228123426437378e-02,-1.482851989567279816e-02,-2.266249805688858032e-02,3.923784568905830383e-02,-2.253689058125019073e-02,1.076755393296480179e-02,-3.646957501769065857e-02,2.378398366272449493e-02,4.505626857280731201e-03,4.901498928666114807e-02,-5.994522199034690857e-02,-3.170849010348320007e-02,1.624377071857452393e-02,-1.265473570674657822e-02,-7.588846236467361450e-02,-1.024429584504105151e-04,-5.597309395670890808e-02,-6.404381245374679565e-02,2.636942826211452484e-02,7.111557573080062866e-02,2.702569030225276947e-02,1.284663844853639603e-02,-4.053664579987525940e-02,-3.696397691965103149e-02,1.111033465713262558e-02,3.447453677654266357e-02,6.290200352668762207e-02,-3.089199960231781006e-02,-6.568219512701034546e-02,-1.029211208224296570e-01,4.121397063136100769e-02,-7.522888481616973877e-04,3.842219337821006775e-02,4.247265309095382690e-02,-6.584043055772781372e-02,2.429681830108165741e-02,2.464974857866764069e-02,-8.504739403724670410e-02,-6.760077178478240967e-02,4.135102964937686920e-03,-3.401579335331916809e-02,8.358221501111984253e-02,-7.879545539617538452e-02,4.775979090481996536e-03,-5.586206912994384766e-02,2.429031580686569214e-02,-3.782213479280471802e-02,3.486063703894615173e-02,8.176782168447971344e-03,-4.304566234350204468e-02,-4.303803294897079468e-02,9.425027668476104736e-02,-2.381188422441482544e-02,-2.499698102474212646e-02,3.478130325675010681e-02,-8.021034300327301025e-03,5.934374406933784485e-03,-1.567134074866771698e-02,-6.002168729901313782e-02,-1.373853255063295364e-02,6.149761006236076355e-02,3.923084959387779236e-02,2.985288761556148529e-02,-1.004928629845380783e-02,-4.127197712659835815e-02,1.809316501021385193e-02,-3.372780280187726021e-03,9.888157993555068970e-02,5.277717858552932739e-02,2.625103853642940521e-02,-6.974653154611587524e-02,-5.947361513972282410e-02,-2.912444248795509338e-02,7.150371372699737549e-02,-8.352532051503658295e-03,-2.256752736866474152e-02,1.573099754750728607e-02,2.536873333156108856e-02,-5.336138233542442322e-02,-5.242574959993362427e-03,-8.896173536777496338e-02,-5.392902996391057968e-03,5.978688132017850876e-03,-1.220587454736232758e-02,-3.601061180233955383e-02,-8.685266226530075073e-02,3.816936537623405457e-02,-2.355135418474674225e-02,4.697639495134353638e-02,-3.068428114056587219e-02,4.217798262834548950e-02,-5.785591527819633484e-02,4.145295824855566025e-04,-3.120922483503818512e-02,-3.362149745225906372e-02,4.194511845707893372e-02,-9.604986757040023804e-02,-2.952243667095899582e-03,7.806175947189331055e-02,-2.946247532963752747e-02,4.196009039878845215e-02,3.000634908676147461e-02,-2.729833126068115234e-02,-5.081231519579887390e-02
-3.226864850148558617e-03,-1.730084232985973358e-02,3.609556332230567932e-02,-5.170717835426330566e-02,-6.305889040231704712e-02,-6.286618113517761230e-02,9.181386977434158325e-02,2.469307184219360352e-02,1.156869083642959595e-01,8.642232418060302734e-02,-1.054766774177551270e-01,7.099185883998870850e-02,-2.517702616751194000e-02,4.411846026778221130e-02,-4.048659652471542358e-02,3.982797637581825256e-02,-2.739470265805721283e-02,-3.671044856309890747e-02,4.731328412890434265e-02,1.718156039714813232e-02,6.950890272855758667e-02,1.404052972793579102e-02,-4.938529804348945618e-03,-1.575956004671752453e-03,3.066502511501312256e-02,-5.272012576460838318e-02,2.671711705625057220e-02,-4.728950187563896179e-02,-5.291585996747016907e-02,-4.738391935825347900e-02,-2.105308882892131805e-02,-1.092744991183280945e-01,-6.652168929576873779e-02,-3.145343065261840820e-02,2.128447778522968292e-02,-1.153430249541997910e-02,-5.321233347058296204e-02,-4.870694130659103394e-02,-9.178508073091506958e-02,-1.587483100593090057e-02,6.543956231325864792e-03,-2.090540342032909393e-02,-6.589471548795700073e-02,-4.245342314243316650e-02,-4.245575889945030212e-02,3.000692836940288544e-02,-4.694030433893203735e-02,-8.884719759225845337e-02,7.762397080659866333e-02,-9.308055043220520020e-02,1.667260751128196716e-02,-7.222735136747360229e-02,-2.447506785392761230e-02,6.198895280249416828e-04,-2.848065923899412155e-03,9.359844028949737549e-02,-5.591196939349174500e-02,-3.762983158230781555e-02,-6.931925565004348755e-02,-2.628669142723083496e-02,3.688827855512499809e-03,4.343302454799413681e-03,6.795418262481689453e-02,2.795387618243694305e-02,-1.942291855812072754e-02,-1.004304811358451843e-01,-7.152825593948364258e-03,5.657678702846169472e-04,-8.184222131967544556e-02,-6.172586604952812195e-02,-8.020396530628204346e-02,-1.125503778457641602e-01,-3.359655663371086121e-02,4.816391319036483765e-02,-2.364849299192428589e-02,5.292810872197151184e-02,-2.441487973555922508e-03,6.441710144281387329e-02,-9.094555280171334743e-04,-1.184416469186544418e-02,-3.469960018992424011e-02,4.191882908344268799e-02,3.474849462509155273e-02,-9.483582526445388794e-02,3.742234408855438232e-02,-1.451146602630615234e-02,-3.038557944819331169e-03,-1.606265828013420105e-02,3.790128231048583984e-02,-1.500836294144392014e-02,5.496445577591657639e-03,-9.050978347659111023e-03,7.220198214054107666e-02,-4.768556356430053711e-02,-2.456959150731563568e-02,-5.175842717289924622e-02,-1.711743138730525970e-02,-5.535460263490676880e-02,-3.472821414470672607e-02,4.735092446208000183e-02,-3.121791593730449677e-02,-7.651461660861968994e-02,9.710889309644699097e-02,-8.802826702594757080e-02,-5.350774619728326797e-03,1.626439951360225677e-02,2.303480915725231171e-02,-3.759541735053062439e-02,-4.452151060104370117e-02,1.401002705097198486e-02,5.765798687934875488e-02,2.521803975105285645e-02,-9.238417260348796844e-03,2.299632318317890167e-02,-2.608568035066127777e-02,3.160478919744491577e-02,-3.877060115337371826e-02,3.279702365398406982e-02,1.683163642883300781e-02,-3.285183385014533997e-02,3.972471877932548523e-02,5.035197362303733826e-02,-2.698853053152561188e-02,2.270847931504249573e-02,-2.807135321199893951e-02,-3.601245582103729248e-03,-2.619309723377227783e-02,3.584074229001998901e-02
6.469973176717758179e-02,5.093175917863845825e-02,-2.442729845643043518e-02,-2.497062645852565765e-02,-5.447681620717048645e-02,3.299244865775108337e-02,-2.936729788780212402e-02,2.463139407336711884e-02,-5.051876977086067200e-02,8.836925029754638672e-03,-5.136362835764884949e-02,-3.061026893556118011e-02,1.816753856837749481e-02,1.834718883037567139e-01,4.313743673264980316e-03,4.879375919699668884e-02,5.432275682687759399e-02,5.925541743636131287e-02,3.805844113230705261e-02,-5.285335704684257507e-02,-7.322280853986740112e-02,-7.173164281994104385e-03,1.981610059738159180e-02,8.209340274333953857e-02,-4.476001858711242676e-02,-1.501122396439313889e-02,-6.832616776227951050e-02,-7.983005791902542114e-02,-5.936862900853157043e-02,-5.746708437800407410e-02,-7.787493616342544556e-02,-1.973852701485157013e-02,-2.135653235018253326e-02,6.731810420751571655e-02,2.644875459372997284e-02,-2.475076168775558472e-02,-1.176937762647867203e-02,3.829718753695487976e-02,2.143721841275691986e-02,2.885818853974342346e-02,4.227599129080772400e-02,5.168340867385268211e-04,8.370840921998023987e-03,-5.075735598802566528e-02,-5.210158228874206543e-02,-3.185649216175079346e-02,7.965425960719585419e-03,3.833953291177749634e-03,-4.935347661375999451e-02,-1.049016043543815613e-01,-5.262872204184532166e-02,5.626998096704483032e-02,6.950841844081878662e-02,-5.808060243725776672e-02,4.078849742654711008e-04,-7.395892869681119919e-03,7.906378805637359619e-02,-2.133358456194400787e-02,1.264231279492378235e-03,-5.234917998313903809e-02,8.667396754026412964e-02,-2.337901853024959564e-02,7.809849828481674194e-02,7.214631140232086182e-02,-5.299953743815422058e-03,6.996453553438186646e-02,-5.554920062422752380e-03,1.001059189438819885e-01,5.030557140707969666e-02,-7.349436730146408081e-02,-2.268097549676895142e-02,-3.335752710700035095e-02,6.596630811691284180e-02,-1.036341711878776550e-01,-8.580049127340316772e-02,-2.973884344100952148e-02,-2.639145962893962860e-02,-2.595984004437923431e-02,-4.848103225231170654e-02,-3.246661648154258728e-02,9.024184197187423706e-02,-1.216882187873125076e-02,4.304328467696905136e-04,-2.156208269298076630e-02,2.774723572656512260e-03,-8.221907541155815125e-03,-8.999588899314403534e-03,4.899428412318229675e-02,6.549289915710687637e-03,-3.436632454395294189e-02,-1.262346934527158737e-02,-3.734985366463661194e-02,5.263483151793479919e-03,1.484968699514865875e-02,1.394250243902206421e-02,-2.170831710100173950e-02,-1.024805828928947449e-01,-5.256739258766174316e-02,-6.525713484734296799e-03,-4.604234546422958374e-02,1.915854052640497684e-03,-4.696960747241973877e-02,1.958703808486461639e-02,-4.815357923507690430e-02,-1.607552915811538696e-02,1.047947327606379986e-03,-2.988963760435581207e-02,1.424802001565694809e-03,6.710181385278701782e-02,-7.231386750936508179e-02,-6.875240802764892578e-02,1.089442428201436996e-02,-8.797051757574081421e-02,3.636048361659049988e-02,1.714780740439891815e-02,1.939386856975033879e-04,7.506223022937774658e-02,4.838178865611553192e-03,5.803739652037620544e-02,3.205589950084686279e-02,3.506194800138473511e-02,-1.781861297786235809e-02,-3.098710207268595695e-03,2.379130199551582336e-02,4.823377355933189392e-02,-3.037228621542453766e-02,-6.056061387062072754e-02,9.287574142217636108e-02
-4.250951856374740601e-02,1.261529624462127686e-01,4.871535301208496094e-02,1.564002409577369690e-02,3.243450541049242020e-03,-1.444985996931791306e-02,4.854880645871162415e-02,1.359557616524398327e-03,-7.698940485715866089e-02,6.231245398521423340e-02,-6.249287724494934082e-02,7.409635186195373535e-02,1.954922638833522797e-02,-6.416316609829664230e-03,2.954995632171630859e-02,-4.375150054693222046e-02,-9.146797470748424530e-03,-1.675975136458873749e-02,5.490992218255996704e-02,6.357745081186294556e-02,8.166976273059844971e-02,4.367865249514579773e-02,9.130126237869262695e-02,5.892084911465644836e-02,-4.658335447311401367e-02,6.568845361471176147e-02,-5.175983067601919174e-03,7.833016663789749146e-02,-5.736176297068595886e-02,-4.994072765111923218e-02,4.007374867796897888e-02,-7.025946676731109619e-02,-2.819303981959819794e-02,5.180948972702026367e-02,3.510674089193344116e-02,-7.769213616847991943e-02,-4.568395018577575684e-02,3.849514294415712357e-03,-9.033083915710449219e-02,4.521014541387557983e-02,-6.944250315427780151e-02,-5.717932060360908508e-02,6.152154132723808289e-02,-2.241018414497375488e-02,-1.850507594645023346e-02,-4.031471535563468933e-02,9.437628835439682007e-02,6.410636752843856812e-02,3.372629731893539429e-02,2.105689607560634613e-02,-3.884817287325859070e-02,4.841048642992973328e-02,4.879472777247428894e-02,-1.164794489741325378e-01,2.661021053791046143e-02,-1.036148890852928162e-01,4.557868093252182007e-02,-3.594608232378959656e-02,-5.416762083768844604e-03,-7.107318192720413208e-02,3.512810543179512024e-02,-6.220724061131477356e-02,-1.844682148657739162e-03,1.151551157236099243e-01,-3.878314793109893799e-02,4.282129928469657898e-02,-5.637071281671524048e-02,-5.137662962079048157e-02,-3.371972218155860901e-02,-3.336837515234947205e-02,-3.357421979308128357e-02,-4.555443301796913147e-02,-2.596887014806270599e-02,-4.936882480978965759e-02,7.034143898636102676e-03,7.894667237997055054e-02,-6.399483419954776764e-03,-5.469340831041336060e-02,-1.293155401945114136e-01,1.954402215778827667e-02,5.083347111940383911e-02,-5.658724531531333923e-02,5.552981421351432800e-02,-1.925742253661155701e-02,2.304513566195964813e-02,2.574230171740055084e-02,-6.553282588720321655e-02,1.014821082353591919e-01,-4.039675742387771606e-02,-2.941612899303436279e-02,-3.053702972829341888e-02,7.287512719631195068e-02,1.855604164302349091e-02,8.557084016501903534e-03,-2.981008030474185944e-02,4.042712971568107605e-03,-4.945931956171989441e-02,3.822623938322067261e-02,2.188773080706596375e-02,6.493997573852539062e-02,6.928529590368270874e-02,-2.434766292572021484e-02,-2.798086404800415039e-02,4.728788509964942932e-02,2.089876495301723480e-02,-2.890110574662685394e-02,4.088132455945014954e-02,-1.518186461180448532e-02,-5.092249065637588501e-02,9.151912294328212738e-03,-1.463155727833509445e-02,-1.826752908527851105e-02,2.237943373620510101e-02,1.903768628835678101e-02,-1.124169956892728806e-02,3.348251804709434509e-03,2.386051975190639496e-02,-9.353038854897022247e-03,7.629037648439407349e-02,8.197641372680664062e-02,-1.133184134960174561e-02,-3.455860540270805359e-02,3.238129196688532829e-03,1.331624295562505722e-02,8.636393398046493530e-02,2.566037140786647797e-02,-3.560913726687431335e-02,5.831960588693618774e-03
-9.814100712537765503e-02,-3.992329910397529602e-02,-9.874760173261165619e-03,-1.510673481971025467e-02,5.974764470010995865e-03,2.573956362903118134e-02,-1.835200376808643341e-02,-1.366113424301147461e-01,-4.762319847941398621e-02,7.537888735532760620e-02,4.361057654023170471e-03,-6.480626296252012253e-03,3.681941330432891846e-02,3.674211679026484489e-03,5.378684028983116150e-02,-7.145919650793075562e-02,-3.544389829039573669e-02,-1.062005013227462769e-02,4.840912297368049622e-02,1.621753792278468609e-03,-9.936686605215072632e-03,2.588291838765144348e-02,-2.972003631293773651e-02,-2.789512043818831444e-03,7.411177456378936768e-02,3.389686346054077148e-03,4.825512319803237915e-02,-4.478726536035537720e-02,-1.189430505037307739e-01,4.752106592059135437e-02,7.926767319440841675e-02,-5.127831920981407166e-02,-4.670497030019760132e-02,7.311486452817916870e-02,-5.447812750935554504e-02,-3.167599067091941833e-02,-8.416158147156238556e-03,-1.053153276443481445e-01,6.452029943466186523e-02,4.359783604741096497e-02,5.750367790460586548e-02,1.085753273218870163e-02,5.812378600239753723e-02,2.082919888198375702e-02,-3.818056732416152954e-02,4.805975034832954407e-02,-3.755244240164756775e-02,2.684596553444862366e-02,2.515203692018985748e-02,-2.911178767681121826e-02,-3.380633890628814697e-03,3.963551297783851624e-02,-1.100380793213844299e-01,3.406086936593055725e-02,-8.472736924886703491e-02,2.756163477897644043e-02,-7.416180800646543503e-03,-2.387700788676738739e-02,2.659351006150245667e-02,-3.815810754895210266e-02,-8.483526855707168579e-02,2.759203314781188965e-02,6.967123597860336304e-02,-5.269755050539970398e-02,-3.118574619293212891e-02,-9.379081428050994873e-03,-1.578146032989025116e-02,1.400670409202575684e-02,-9.638487361371517181e-03,2.007154002785682678e-02,-5.274920538067817688e-02,-1.614832691848278046e-02,-1.368758361786603928e-02,-1.774030923843383789e-02,4.744426161050796509e-02,-2.761349640786647797e-02,-3.981125075370073318e-03,-4.112162441015243530e-02,-1.186647340655326843e-01,-2.722463384270668030e-02,7.830752991139888763e-03,3.919215500354766846e-02,-6.466438621282577515e-02,2.036258205771446228e-02,-4.271505400538444519e-02,-1.359695345163345337e-01,-1.636931113898754120e-02,-4.969779774546623230e-02,-1.179674081504344940e-02,5.315164104104042053e-03,-2.915285527706146240e-02,2.498283609747886658e-02,1.837261393666267395e-02,9.098564274609088898e-03,-7.075721770524978638e-02,-2.291435003280639648e-02,8.086635917425155640e-02,-7.159819453954696655e-02,3.565018996596336365e-02,-5.053483322262763977e-02,-8.154910802841186523e-02,-1.948566362261772156e-02,4.621699824929237366e-02,4.315111786127090454e-03,4.952919110655784607e-02,1.829980313777923584e-02,5.536912009119987488e-02,5.581516027450561523e-02,4.939829558134078979e-02,-5.627722665667533875e-02,-8.651350071886554360e-05,-4.871719703078269958e-02,3.337181871756911278e-03,-2.888243459165096283e-02,7.055715471506118774e-02,-2.642860170453786850e-03,-6.868871301412582397e-02,5.099791288375854492e-02,5.088707804679870605e-02,-4.991062358021736145e-02,8.732021786272525787e-03,-7.620301097631454468e-02,-4.046736285090446472e-02,1.928758225403726101e-03,1.559680700302124023e-02,1.316803693771362305e-02,5.593636631965637207e-02,1.473005022853612900e-02
2.067282795906066895e-02,-2.564319781959056854e-02,-6.430911365896463394e-03,7.139691710472106934e-02,5.089023709297180176e-02,2.680881880223751068e-02,5.578555166721343994e-02,8.411024510860443115e-02,4.590180143713951111e-02,-3.472614660859107971e-02,1.778315752744674683e-02,6.462924648076295853e-03,-1.948559843003749847e-02,-2.848693542182445526e-02,-4.791105538606643677e-02,4.115557239856570959e-04,-4.156747087836265564e-02,-3.174618631601333618e-02,-1.512530026957392693e-03,1.552525348961353302e-02,5.554247647523880005e-02,-2.555229514837265015e-02,4.530830681324005127e-02,1.331678591668605804e-03,6.015310436487197876e-02,7.644035667181015015e-02,-5.477145686745643616e-02,-8.891786634922027588e-02,-5.269952490925788879e-02,-1.349236909300088882e-02,1.218648534268140793e-02,-9.449761360883712769e-03,-1.534347049891948700e-02,8.214566856622695923e-03,-2.904773689806461334e-02,-2.303087525069713593e-02,-1.356527488678693771e-02,-4.895546939224004745e-03,-2.720526885241270065e-03,-6.502979900687932968e-03,7.316863536834716797e-02,-6.942312419414520264e-02,5.400592088699340820e-02,6.023023650050163269e-02,1.391685940325260162e-02,-8.150051534175872803e-02,4.411459900438785553e-03,-5.393156036734580994e-02,6.939875893294811249e-03,2.138232998549938202e-02,-6.543330848217010498e-02,-3.237408772110939026e-02,2.962691709399223328e-02,1.797834783792495728e-02,6.172669306397438049e-02,-2.073575556278228760e-02,2.316638361662626266e-03,-3.898662701249122620e-02,-2.826273441314697266e-02,-6.185587123036384583e-02,-5.677985399961471558e-02,7.684423029422760010e-02,6.988494098186492920e-02,-4.381489753723144531e-02,-4.444159194827079773e-02,1.878270879387855530e-02,2.565038762986660004e-02,1.435067690908908844e-02,5.637243855744600296e-03,-9.516763687133789062e-02,2.080317772924900055e-02,-6.563241779804229736e-02,4.641394317150115967e-02,-1.042399182915687561e-01,3.768347576260566711e-02,1.083683967590332031e-01,3.276074305176734924e-02,-1.893158257007598877e-02,3.975295927375555038e-03,6.147169321775436401e-02,-4.391906037926673889e-02,-2.169905230402946472e-03,-6.346960365772247314e-02,-2.443815115839242935e-03,-3.989366441965103149e-02,-1.668575033545494080e-02,3.949229791760444641e-02,1.874993555247783661e-02,5.950576439499855042e-02,7.957067340612411499e-02,5.633486900478601456e-03,1.159528084099292755e-02,-2.564526163041591644e-02,-6.520530674606561661e-03,-5.484265461564064026e-02,-1.239671558141708374e-02,6.282276939600706100e-03,3.855569660663604736e-02,3.640651330351829529e-02,7.365813851356506348e-02,3.105763718485832214e-02,-7.536149024963378906e-02,2.553809247910976410e-02,-1.375599019229412079e-02,9.764412045478820801e-02,7.074514031410217285e-02,2.732385136187076569e-02,5.174402147531509399e-02,-6.242911145091056824e-02,-2.522813528776168823e-02,4.529066383838653564e-02,4.273025691509246826e-02,-3.393331915140151978e-02,-3.082593716681003571e-02,1.033111847937107086e-02,5.957017838954925537e-02,-2.605206891894340515e-02,1.726052723824977875e-02,7.830410264432430267e-03,6.820774171501398087e-03,5.458253249526023865e-02,3.082170896232128143e-02,3.714277595281600952e-02,-9.070438891649246216e-02,-6.134629994630813599e-02,8.298994600772857666e-02,-9.561498463153839111e-02,-2.376383729279041290e-02
-1.317028142511844635e-02,6.356385536491870880e-03,-8.292930573225021362e-02,1.531176827847957611e-02,2.795328572392463684e-02,-5.477895494550466537e-03,2.424469403922557831e-02,2.684976346790790558e-02,6.261931266635656357e-03,5.452172365039587021e-03,6.401030719280242920e-02,9.213100373744964600e-02,-1.017930358648300171e-02,-6.325134634971618652e-02,6.539678573608398438e-02,6.558243185281753540e-02,3.378784283995628357e-02,-5.886680912226438522e-03,4.647184628993272781e-03,6.155897863209247589e-03,1.121056526899337769e-01,-8.834001421928405762e-02,-5.530729517340660095e-02,5.071128904819488525e-02,-2.311424032086506486e-05,3.131258115172386169e-02,-4.199831932783126831e-02,4.725028201937675476e-02,-8.171693980693817139e-02,-2.531719952821731567e-02,2.511662663891911507e-03,4.460180178284645081e-02,1.255721300840377808e-01,3.052522242069244385e-02,-1.345522468909621239e-03,-3.010931052267551422e-02,4.667583853006362915e-03,-5.027415975928306580e-02,2.524095028638839722e-02,8.329553157091140747e-02,-4.066312685608863831e-03,7.964280992746353149e-02,2.702765725553035736e-02,4.764787107706069946e-02,2.546483278274536133e-02,-2.703549107536673546e-03,-5.065155029296875000e-02,4.881456494331359863e-02,-6.841257680207490921e-03,5.571610853075981140e-02,-4.490978643298149109e-02,-1.609548460692167282e-03,-5.140774697065353394e-02,5.766639113426208496e-02,2.554768882691860199e-02,-3.212149068713188171e-02,-4.812030866742134094e-02,3.233453631401062012e-02,1.274224743247032166e-02,2.936476282775402069e-02,-1.407639123499393463e-02,-1.880505494773387909e-02,1.094601526856422424e-01,-6.949467211961746216e-02,2.453147247433662415e-02,9.127699770033359528e-03,3.642299398779869080e-02,2.631703764200210571e-02,3.067822195589542389e-02,1.558174341917037964e-01,1.277236640453338623e-02,-1.097560022026300430e-02,2.135916985571384430e-02,1.075348779559135437e-01,-3.863895684480667114e-02,-1.603626995347440243e-03,-2.745373733341693878e-02,1.839989796280860901e-02,1.928311772644519806e-02,-2.351122349500656128e-02,-5.775842070579528809e-02,4.324012249708175659e-02,2.096568793058395386e-02,2.557380311191082001e-02,1.836105436086654663e-02,2.575493045151233673e-02,-1.197915873490273952e-03,-2.576232142746448517e-02,3.953260183334350586e-02,9.206191753037273884e-04,1.322393491864204407e-02,-5.678131803870201111e-02,2.816868945956230164e-02,5.792982876300811768e-02,3.896600008010864258e-02,-2.619558572769165039e-02,-5.307413265109062195e-02,-9.237310849130153656e-03,-4.903146997094154358e-02,-1.365328021347522736e-02,3.080718219280242920e-02,-1.321411971002817154e-02,-8.641183376312255859e-02,2.882649749517440796e-02,8.988754451274871826e-02,4.089608788490295410e-02,1.185300666838884354e-02,3.698524087667465210e-02,-3.475228697061538696e-02,-1.126813143491744995e-02,-1.321528851985931396e-01,-5.985913425683975220e-02,1.024799607694149017e-02,1.101763080805540085e-02,-3.539364039897918701e-02,-6.253111641854047775e-03,-5.952677875757217407e-02,-7.601156085729598999e-02,1.564502716064453125e-02,-4.454592987895011902e-02,-1.098057068884372711e-02,-3.064331598579883575e-02,-2.827175660058856010e-03,-4.268410056829452515e-02,-8.035609871149063110e-02,-2.488042600452899933e-02,-5.636435374617576599e-02,-5.797054618597030640e-03
-2.999339997768402100e-02,4.976736754179000854e-02,8.651783317327499390e-02,2.629729732871055603e-02,-1.663602702319622040e-02,-4.985797405242919922e-02,-5.713435634970664978e-02,-1.974653080105781555e-02,1.787673495709896088e-02,-1.443067658692598343e-02,-5.137485638260841370e-02,-1.782374456524848938e-02,5.592675879597663879e-02,1.892758905887603760e-02,-2.527563460171222687e-02,2.896191924810409546e-02,-8.856858476065099239e-04,-7.053945213556289673e-02,-4.172099754214286804e-02,-5.391556024551391602e-02,7.202537357807159424e-02,2.788500115275382996e-02,7.369474321603775024e-02,-2.958897314965724945e-02,2.001536265015602112e-02,-2.614489290863275528e-03,6.402882933616638184e-02,6.216524913907051086e-02,2.877291664481163025e-02,7.831237465143203735e-02,-5.814326182007789612e-02,-1.054439768195152283e-01,-5.738367512822151184e-02,-2.079961588606238365e-03,-4.972480237483978271e-02,4.130445048213005066e-02,-4.976878687739372253e-02,-7.175545673817396164e-03,5.260038375854492188e-02,-1.179994200356304646e-03,4.606904461979866028e-02,-4.827228933572769165e-02,-5.890692397952079773e-02,-3.433299064636230469e-02,1.070963442325592041e-01,5.810372158885002136e-02,-5.007394403219223022e-02,-9.361848235130310059e-02,4.220668599009513855e-02,3.195207938551902771e-02,4.813142120838165283e-02,-2.487431094050407410e-02,-2.813042327761650085e-02,-3.709064051508903503e-02,1.969114691019058228e-02,-2.001128159463405609e-02,-3.730788454413414001e-02,-1.062682420015335083e-01,-3.513558208942413330e-02,-9.248563088476657867e-03,-2.683416567742824554e-02,1.404373440891504288e-03,-3.934264555573463440e-02,2.019347622990608215e-03,3.292533382773399353e-02,-4.144836962223052979e-02,1.219725701957941055e-02,-7.302443683147430420e-02,1.317387726157903671e-02,-5.561149865388870239e-02,-3.463238477706909180e-02,7.755637168884277344e-02,6.165838800370693207e-03,-5.165969952940940857e-02,-5.430702492594718933e-02,-2.707830816507339478e-02,-3.856588620692491531e-03,3.115404583513736725e-02,-5.962908640503883362e-02,1.274902746081352234e-02,1.890918053686618805e-02,5.373896658420562744e-02,4.761902242898941040e-02,-7.182636857032775879e-02,4.498944431543350220e-02,4.039896279573440552e-02,1.771742664277553558e-02,-1.338101271539926529e-02,-1.159547567367553711e-01,-1.486859400756657124e-03,-2.996365912258625031e-02,3.729668259620666504e-02,1.059402227401733398e-01,5.774026364088058472e-02,2.090885303914546967e-02,-6.856388598680496216e-02,2.917819097638130188e-02,-3.167282789945602417e-02,1.190176699310541153e-03,8.376314491033554077e-02,3.390869125723838806e-02,-7.460086606442928314e-03,1.511397864669561386e-02,-1.291218120604753494e-02,1.538560609333217144e-03,-4.111063480377197266e-02,1.113263890147209167e-02,-2.394849620759487152e-02,-1.076827719807624817e-01,4.595125839114189148e-02,3.222393617033958435e-02,-4.886568337678909302e-02,5.330272763967514038e-02,2.165990322828292847e-02,4.061633348464965820e-02,-6.527278572320938110e-03,-1.614298671483993530e-02,2.514552325010299683e-02,4.497659206390380859e-02,-4.656579717993736267e-02,-5.144375842064619064e-03,-2.751880884170532227e-02,-5.354125052690505981e-02,-5.953191220760345459e-02,3.867731243371963501e-02,6.288541108369827271e-02,-4.957301169633865356e-02,4.217134416103363037e-02
5.338081344962120056e-02,4.828523471951484680e-02,2.794119156897068024e-02,6.418767571449279785e-02,8.335103280842304230e-03,-2.211463265120983124e-02,-3.964873030781745911e-02,-3.563295304775238037e-02,4.505431279540061951e-02,-5.458060652017593384e-02,-7.768732309341430664e-02,-4.337013233453035355e-03,-1.057246350683271885e-03,1.070234626531600952e-01,7.169593125581741333e-02,-4.160550609230995178e-02,-2.527500689029693604e-02,-7.426330819725990295e-03,-3.996066749095916748e-03,3.377195447683334351e-02,5.171596258878707886e-02,-1.172211468219757080e-01,-7.651293277740478516e-02,-9.327064454555511475e-02,3.403560444712638855e-02,-4.215446859598159790e-02,4.768026992678642273e-02,4.689848795533180237e-02,-1.674365252256393433e-02,2.542072348296642303e-02,3.770170034840703011e-03,4.220817238092422485e-02,-8.647885918617248535e-02,8.534924685955047607e-02,-2.488269843161106110e-02,4.252897202968597412e-02,-6.512039899826049805e-02,-3.356848144903779030e-03,2.531582489609718323e-02,-5.016704648733139038e-02,-2.410343103110790253e-02,-1.272537112236022949e-01,3.224652633070945740e-02,-7.808713614940643311e-02,-1.609773933887481689e-02,-6.426876038312911987e-02,-1.292932499200105667e-02,-3.921896219253540039e-02,6.356410682201385498e-02,9.246134757995605469e-02,-8.778018504381179810e-02,-3.284286707639694214e-03,6.342192739248275757e-02,1.359492447227239609e-02,1.154054179787635803e-01,1.598334754817187786e-03,8.532945811748504639e-02,-2.042863517999649048e-02,-3.934604302048683167e-02,-1.750164292752742767e-02,-6.045076996088027954e-03,7.123024016618728638e-02,6.256987154483795166e-02,-5.106868222355842590e-02,1.676078327000141144e-02,2.868960052728652954e-02,5.479227006435394287e-02,4.148502368479967117e-03,-8.168160170316696167e-02,6.323224306106567383e-02,-7.475856109522283077e-04,-1.238424424082040787e-02,-5.046281963586807251e-02,3.252681344747543335e-02,-3.523265570402145386e-02,1.435566879808902740e-02,3.471693396568298340e-02,1.975188730284571648e-03,-2.830340340733528137e-02,-1.076734997332096100e-02,-3.047517128288745880e-02,-5.447312816977500916e-02,-2.854574471712112427e-02,-4.833051934838294983e-02,2.138310857117176056e-02,-1.031252667307853699e-01,-1.206218674778938293e-01,-8.624657243490219116e-02,3.369781747460365295e-02,-3.093891963362693787e-02,-4.575691185891628265e-03,7.201176136732101440e-02,-5.871306173503398895e-03,8.885247260332107544e-02,1.079214387573301792e-03,4.009241983294487000e-02,3.324420377612113953e-02,-6.761673092842102051e-02,9.988089092075824738e-03,7.774979621171951294e-02,-3.320977091789245605e-02,-1.205110773444175720e-01,1.641638018190860748e-02,2.204100415110588074e-02,-5.633467435836791992e-02,-6.111932545900344849e-02,-1.510417908430099487e-01,-9.573795646429061890e-02,-5.066983029246330261e-02,-1.714905537664890289e-02,5.357490107417106628e-02,5.266062170267105103e-02,7.464141398668289185e-02,5.684144794940948486e-02,-7.401987444609403610e-03,6.715914607048034668e-02,2.865925664082169533e-03,-4.518274962902069092e-02,6.138240545988082886e-02,-2.062007598578929901e-02,-2.534006955102086067e-03,8.595300838351249695e-03,1.823078095912933350e-02,-5.113973468542098999e-02,-6.619936227798461914e-02,5.796296522021293640e-02,1.628340221941471100e-02,-5.748518183827400208e-02
-3.531407937407493591e-02,1.880355924367904663e-02,9.331426024436950684e-02,-4.663723707199096680e-02,-2.335569821298122406e-02,3.536302968859672546e-02,-1.005560085177421570e-01,-3.124817647039890289e-02,-1.647865399718284607e-03,-7.895320653915405273e-02,-4.311480000615119934e-02,5.006376188248395920e-03,4.032739996910095215e-02,2.547377906739711761e-02,-6.719523575156927109e-03,-5.234662909060716629e-03,5.653975065797567368e-03,6.794664263725280762e-02,4.642974957823753357e-02,6.362151354551315308e-02,-2.327514626085758209e-02,-3.372884169220924377e-02,2.402033843100070953e-02,-1.971876248717308044e-02,9.415654093027114868e-02,-8.429010957479476929e-02,1.110881343483924866e-01,-6.665572524070739746e-02,-4.418152943253517151e-02,5.580535158514976501e-02,3.311016783118247986e-02,2.077372744679450989e-02,5.676637962460517883e-02,7.929998636245727539e-02,-1.793566718697547913e-02,2.881354652345180511e-03,-5.550999566912651062e-02,-1.029385477304458618e-01,1.025246921926736832e-02,5.182803794741630554e-02,-2.686286531388759613e-02,-7.352137565612792969e-02,1.000874266028404236e-01,-1.618620008230209351e-02,3.152720257639884949e-02,-6.093753967434167862e-03,-2.836981229484081268e-02,1.171781774610280991e-02,-8.912231773138046265e-02,-1.475194543600082397e-01,6.793690472841262817e-02,1.052407082170248032e-02,-4.604729264974594116e-02,2.444816939532756805e-02,1.622977480292320251e-02,5.256300792098045349e-02,4.840266332030296326e-02,6.622432265430688858e-03,-1.250705122947692871e-02,5.392401944845914841e-03,6.482660025358200073e-02,7.330777496099472046e-02,3.893815726041793823e-02,-1.684036664664745331e-02,5.074184015393257141e-02,4.970095679163932800e-02,-2.995718829333782196e-02,5.317186191678047180e-02,-6.340578198432922363e-02,-3.320401161909103394e-02,4.233418032526969910e-02,9.035676717758178711e-02,-2.927553653717041016e-02,-7.058674842119216919e-02,3.470815345644950867e-02,-3.727025538682937622e-02,5.473232269287109375e-02,3.774432837963104248e-02,6.505127996206283569e-02,-5.226073786616325378e-02,-2.995761297643184662e-02,7.088470458984375000e-02,-3.006244078278541565e-02,6.763096153736114502e-02,8.753431588411331177e-02,-2.732435474172234535e-03,1.657252386212348938e-02,1.096109114587306976e-02,2.016691491007804871e-02,-1.016872078180313110e-01,9.472040692344307899e-04,-1.238978654146194458e-02,-2.391065470874309540e-02,5.142184719443321228e-02,-1.265254337340593338e-02,2.580468915402889252e-02,8.002515882253646851e-02,-8.385340683162212372e-03,1.297958195209503174e-01,-4.976256284862756729e-03,7.937096059322357178e-02,2.951721847057342529e-02,-2.513092197477817535e-02,-3.625242412090301514e-02,8.604288101196289062e-02,-5.849278718233108521e-02,2.094487193971872330e-03,1.241810321807861328e-01,7.243739813566207886e-02,5.904903635382652283e-02,-4.048809036612510681e-02,3.896587714552879333e-02,1.197112631052732468e-02,-3.615535423159599304e-02,-6.137726455926895142e-02,-1.804850064218044281e-02,6.404305994510650635e-02,1.800787821412086487e-02,1.396019663661718369e-02,-4.832521080970764160e-02,-5.945295095443725586e-02,-1.507328450679779053e-01,-2.121325768530368805e-02,3.505859524011611938e-03,4.777979105710983276e-02,5.626981332898139954e-02,-9.280847758054733276e-02,-2.496041916310787201e-02
-2.388095669448375702e-02,-1.702305302023887634e-02,6.653683632612228394e-02,2.295021526515483856e-02,-3.907983750104904175e-02,2.606340311467647552e-02,-6.883721053600311279e-02,1.299079041928052902e-02,-6.113085895776748657e-02,2.292578294873237610e-02,9.340238175354897976e-04,4.187257215380668640e-02,-1.214873883873224258e-02,-4.115987941622734070e-02,-8.513789623975753784e-02,-7.974291592836380005e-02,6.080207228660583496e-02,4.205510392785072327e-02,6.006482057273387909e-03,-1.024478673934936523e-02,-1.436496246606111526e-02,-8.472902327775955200e-02,-1.037901565432548523e-01,-6.395445764064788818e-02,-4.424003884196281433e-02,6.176060438156127930e-02,-8.659496903419494629e-02,-3.475401550531387329e-02,2.457798086106777191e-02,5.666595324873924255e-02,2.800140716135501862e-02,-1.081186626106500626e-02,-4.258548468351364136e-02,4.799508955329656601e-03,-1.587548293173313141e-02,-9.718108922243118286e-02,2.366466633975505829e-02,-7.031195610761642456e-02,9.893202036619186401e-02,3.416899964213371277e-02,-7.096593081951141357e-02,2.193366363644599915e-02,2.176408469676971436e-02,5.671241879463195801e-02,4.884160007350146770e-04,-8.507012575864791870e-02,3.923448547720909119e-02,1.802599243819713593e-02,-6.485365331172943115e-02,5.320005584508180618e-03,-2.739006280899047852e-02,6.365168839693069458e-03,-6.732015311717987061e-02,3.501712903380393982e-02,-5.212535336613655090e-02,4.959049448370933533e-02,-3.671783581376075745e-02,3.350209444761276245e-03,7.840425707399845123e-03,5.560724064707756042e-02,-2.541558444499969482e-02,5.280150845646858215e-02,-2.244704775512218475e-02,-1.634636893868446350e-02,-8.619736880064010620e-02,5.061656236648559570e-02,-1.323573291301727295e-02,-6.622371077537536621e-02,5.200592800974845886e-02,4.058901965618133545e-02,1.216653734445571899e-01,-8.539824932813644409e-02,-6.875380128622055054e-02,-1.963544450700283051e-02,-4.179535061120986938e-02,3.261353075504302979e-02,5.650427564978599548e-02,-6.371186673641204834e-02,-7.161641865968704224e-02,1.269552111625671387e-02,-8.129053562879562378e-02,-3.735977038741111755e-02,2.244681119918823242e-02,-6.049156654626131058e-03,-5.202857777476310730e-02,-2.109596505761146545e-02,-1.632557250559329987e-02,3.283278271555900574e-02,3.221477195620536804e-02,-6.725107785314321518e-03,-9.795866906642913818e-03,-5.252536013722419739e-02,-2.189696207642555237e-02,6.817107647657394409e-02,1.774228410795331001e-03,-3.484704717993736267e-02,-4.949555173516273499e-02,9.587745182216167450e-03,6.022908166050910950e-02,4.345659166574478149e-02,9.644409269094467163e-02,5.365586280822753906e-02,-3.251869231462478638e-02,1.098392978310585022e-01,6.436502188444137573e-02,6.154843047261238098e-02,-1.154128834605216980e-01,2.127485536038875580e-02,1.102709695696830750e-01,7.994117587804794312e-02,-2.034144662320613861e-02,2.259402349591255188e-02,-3.738948330283164978e-02,-2.862245077267289162e-03,7.376035302877426147e-02,7.196208927780389786e-03,5.657756328582763672e-02,4.092836007475852966e-02,3.212257102131843567e-02,3.248673304915428162e-02,-1.386068761348724365e-03,-6.604533642530441284e-02,-1.082173269242048264e-02,-6.149833276867866516e-02,-2.607306279242038727e-02,-7.405646145343780518e-02,-8.816891163587570190e-02,9.683483093976974487e-02
-5.322247277945280075e-03,2.466803044080734253e-02,8.508729934692382812e-02,-1.217729877680540085e-02,4.322552680969238281e-02,-1.955266855657100677e-02,6.491552293300628662e-02,-3.988875821232795715e-02,4.907411057502031326e-03,2.208767645061016083e-02,-1.718134246766567230e-02,-5.141594633460044861e-02,-6.351961940526962280e-02,5.754073499701917171e-04,-1.526755560189485550e-02,-8.076082170009613037e-02,3.537881746888160706e-02,-1.119463220238685608e-01,-3.258291259407997131e-02,9.023021906614303589e-03,-3.285399451851844788e-02,-1.455170363187789917e-01,-2.755310945212841034e-02,-2.359844744205474854e-02,7.341995090246200562e-02,-3.134896233677864075e-02,-2.143364865332841873e-03,-3.679174557328224182e-02,4.058992490172386169e-02,8.127202279865741730e-03,-7.533978670835494995e-02,4.847545176744461060e-02,-1.579464785754680634e-02,1.996783073991537094e-03,-6.382202357053756714e-02,9.792232513427734375e-02,-2.040031366050243378e-02,1.192480698227882385e-01,-5.223618820309638977e-02,4.342876002192497253e-02,-5.877034738659858704e-02,-6.567318737506866455e-02,5.219380930066108704e-02,-9.067556820809841156e-03,-3.887946484610438347e-03,8.323792368173599243e-03,7.607509847730398178e-03,-1.831315108574926853e-03,5.037178471684455872e-02,-7.127218879759311676e-03,3.673824667930603027e-02,-7.031347136944532394e-03,-1.728213392198085785e-02,-3.929084911942481995e-02,4.011590033769607544e-02,-3.264123573899269104e-02,-2.695487998425960541e-02,-8.506312221288681030e-02,-1.103425770998001099e-01,3.841252997517585754e-02,7.779300212860107422e-02,-9.537418931722640991e-02,9.689256548881530762e-03,-1.225604787468910217e-01,-3.661922737956047058e-02,-5.013918504118919373e-02,4.968855902552604675e-02,5.835677310824394226e-02,-8.132704347372055054e-02,1.449524015188217163e-01,5.022146180272102356e-02,-1.488033123314380646e-02,-3.849204629659652710e-02,6.087423115968704224e-02,2.581669716164469719e-03,8.596251159906387329e-02,-8.540603518486022949e-02,7.847401313483715057e-03,4.932011291384696960e-02,-2.722348086535930634e-02,3.513928502798080444e-02,-3.821415454149246216e-02,4.514986276626586914e-02,7.590819895267486572e-02,9.453955106437206268e-03,-6.987130641937255859e-02,-1.389819569885730743e-02,1.107761543244123459e-02,2.977731265127658844e-02,-2.019429206848144531e-02,1.586250960826873779e-02,1.642468944191932678e-02,-1.274219062179327011e-02,5.242988001555204391e-03,-4.983873292803764343e-02,-1.456184405833482742e-02,3.528938814997673035e-02,1.725568622350692749e-02,-6.633527576923370361e-02,1.397281605750322342e-02,-4.400609061121940613e-02,3.666617348790168762e-02,-2.217729017138481140e-02,8.894396573305130005e-02,-2.902336232364177704e-02,3.005452826619148254e-02,-5.769248586148023605e-03,8.932274580001831055e-02,-6.543495506048202515e-02,9.167739003896713257e-02,-2.093958668410778046e-02,8.414420299232006073e-03,2.339462190866470337e-02,-7.486264407634735107e-02,3.360529989004135132e-02,1.281872540712356567e-01,-3.526131436228752136e-02,-6.975241005420684814e-03,-5.556226894259452820e-02,7.373919337987899780e-02,-4.798857495188713074e-02,-8.955514989793300629e-03,8.001047372817993164e-02,4.226273298263549805e-02,-2.610157988965511322e-02,4.232832416892051697e-02,-6.470324844121932983e-02,6.050429772585630417e-03
-7.498826831579208374e-03,-5.328667908906936646e-02,4.711028188467025757e-02,3.548507019877433777e-02,8.193726092576980591e-02,-2.043514512479305267e-02,4.985828697681427002e-02,1.258939038962125778e-02,2.653159573674201965e-02,1.703889481723308563e-02,1.839426346123218536e-02,-3.666434437036514282e-02,3.660243377089500427e-02,8.205496519804000854e-02,1.540878694504499435e-02,3.535279259085655212e-02,-4.018514230847358704e-02,-6.352590769529342651e-02,2.967543900012969971e-02,-4.389001056551933289e-02,3.329565748572349548e-02,1.832868717610836029e-02,-3.463800251483917236e-02,-5.658849701285362244e-02,3.037456050515174866e-02,-9.383047372102737427e-02,-4.015040770173072815e-02,1.765978336334228516e-02,-5.135471373796463013e-02,-1.928501389920711517e-02,-6.319907307624816895e-02,4.535486921668052673e-02,-3.465434908866882324e-02,-1.514910440891981125e-02,-5.344234034419059753e-02,-9.721366688609123230e-03,3.133557364344596863e-02,-6.232966110110282898e-02,-1.781639270484447479e-02,-3.167704865336418152e-02,-2.472436428070068359e-02,-9.729685634374618530e-02,1.162556558847427368e-01,5.966156721115112305e-02,3.257235512137413025e-02,-1.575727201998233795e-02,3.241731226444244385e-02,1.979807578027248383e-02,-4.913904517889022827e-02,2.292406558990478516e-02,3.244667127728462219e-02,3.527430072426795959e-02,-6.908179074525833130e-02,-8.101028949022293091e-02,3.280757740139961243e-02,4.441780969500541687e-02,-7.045976072549819946e-02,-1.425807327032089233e-01,-1.175303682684898376e-01,-3.459117561578750610e-02,-4.644751921296119690e-02,-7.949255406856536865e-02,7.764177769422531128e-02,-3.203852102160453796e-02,-4.026516899466514587e-02,-2.498539909720420837e-02,6.017107516527175903e-02,-9.211354888975620270e-03,-2.007931657135486603e-02,3.555687889456748962e-02,-1.128018051385879517e-01,4.522122815251350403e-02,-5.682362988591194153e-02,-1.224628686904907227e-01,-4.151315987110137939e-02,-4.617722705006599426e-03,1.998149417340755463e-02,-1.935568451881408691e-02,-5.992823466658592224e-02,9.218139201402664185e-02,-6.736242026090621948e-02,4.034026991575956345e-03,-3.387494757771492004e-02,-9.791923314332962036e-02,-2.268901467323303223e-02,-7.461356371641159058e-02,-1.395142730325460434e-02,-5.287568643689155579e-02,1.931381225585937500e-02,2.074186317622661591e-02,-4.640686325728893280e-03,-8.733787387609481812e-02,-1.771822758018970490e-02,-7.362409681081771851e-02,1.778806559741497040e-02,8.630075305700302124e-02,-4.109016433358192444e-02,-5.035338108427822590e-04,-4.469411075115203857e-02,-5.230915173888206482e-02,5.666012689471244812e-02,-3.735124692320823669e-02,1.686791330575942993e-02,-6.091907620429992676e-02,-5.948274955153465271e-02,-9.457375854253768921e-02,-1.445637084543704987e-02,-4.688717424869537354e-02,-6.983262486755847931e-03,-2.977673709392547607e-02,5.282868817448616028e-02,-4.819377511739730835e-02,5.026664584875106812e-04,4.877037927508354187e-02,4.531534761190414429e-02,9.611421264708042145e-03,1.835166476666927338e-02,1.378392707556486130e-02,4.286864027380943298e-02,1.456026453524827957e-02,3.717607632279396057e-02,-2.099224738776683807e-02,1.411017682403326035e-02,1.433648355305194855e-02,1.713162288069725037e-02,1.176737528294324875e-02,-5.290277674794197083e-02,-2.727224025875329971e-03
-5.914821755141019821e-03,1.284723635762929916e-02,5.437880754470825195e-02,-6.081422790884971619e-02,3.215902671217918396e-02,-3.987415879964828491e-02,4.940173029899597168e-02,4.641541466116905212e-02,-4.392902925610542297e-02,5.167908594012260437e-02,5.033398792147636414e-02,-3.474259376525878906e-02,-1.013610363006591797e-01,-1.295471042394638062e-01,2.963367104530334473e-02,-1.144512183964252472e-02,1.281122397631406784e-02,-9.219428151845932007e-02,4.071963950991630554e-02,3.208818659186363220e-02,1.888207159936428070e-02,6.632634252309799194e-02,-4.769035428762435913e-02,-6.189096719026565552e-02,-7.892199791967868805e-03,-1.710062660276889801e-02,-1.046661939471960068e-02,3.059620223939418793e-02,6.256826221942901611e-03,-9.419599175453186035e-02,6.259071081876754761e-02,9.165408462285995483e-02,5.862822011113166809e-02,-6.508284714072942734e-03,1.615598797798156738e-02,2.235484076663851738e-03,-1.002984400838613510e-02,4.463645443320274353e-02,1.053845435380935669e-01,4.908184334635734558e-02,4.243479296565055847e-02,-1.993800047785043716e-03,-7.157554384320974350e-03,-6.722665578126907349e-02,2.880862355232238770e-02,-7.436340302228927612e-02,-8.648594468832015991e-02,4.039454087615013123e-02,-3.398409858345985413e-02,-3.494681045413017273e-02,1.132589131593704224e-01,-4.076351225376129150e-02,-3.587575629353523254e-03,-2.082614600658416748e-02,5.951179936528205872e-02,-1.777720823884010315e-02,-3.165539819747209549e-03,4.506705328822135925e-03,-1.386279314756393433e-01,-7.618934661149978638e-02,3.586159646511077881e-02,-1.264757364988327026e-01,3.427007049322128296e-02,3.782861679792404175e-02,-6.167373061180114746e-02,-1.421401649713516235e-01,5.998343229293823242e-02,-2.254019863903522491e-02,1.162239001132547855e-03,-2.088846825063228607e-02,7.962322980165481567e-02,-1.518410351127386093e-02,7.575963437557220459e-02,3.825766267254948616e-03,-4.489144310355186462e-02,1.195028349757194519e-01,-3.098714724183082581e-02,-5.043509230017662048e-02,-1.207977812737226486e-02,-7.830603420734405518e-02,-3.304569795727729797e-02,-2.146078087389469147e-02,6.676183640956878662e-02,-1.800132216885685921e-03,-5.932020768523216248e-02,1.318440586328506470e-02,-3.902360796928405762e-02,3.593556210398674011e-02,-6.579290330410003662e-02,-4.593690857291221619e-02,5.115718394517898560e-02,-1.990105025470256805e-02,4.946952313184738159e-02,4.024801310151815414e-03,2.795544639229774475e-02,-5.348060745745897293e-03,2.116700820624828339e-02,2.834584377706050873e-02,6.325011141598224640e-03,-2.959443628787994385e-02,4.684469196945428848e-03,-1.666895858943462372e-02,1.427279878407716751e-02,-3.425891324877738953e-02,3.162462636828422546e-02,6.429783254861831665e-02,2.802927792072296143e-02,2.558864653110504150e-02,-3.741605207324028015e-02,-3.705292940139770508e-02,5.276178009808063507e-03,-8.747104555368423462e-02,2.168075926601886749e-02,6.345548480749130249e-02,-1.429692935198545456e-02,-9.097512811422348022e-02,-4.518672823905944824e-02,2.199930325150489807e-02,6.230268627405166626e-02,-1.377569604665040970e-02,-8.034237474203109741e-02,-3.050123527646064758e-02,-3.762621805071830750e-02,-1.444048341363668442e-02,3.254801034927368164e-02,5.494083836674690247e-02,-6.099605560302734375e-02,1.359711121767759323e-02
-1.890755444765090942e-02,2.162721194326877594e-02,-2.267657779157161713e-02,-1.388015784323215485e-02,5.152262002229690552e-02,7.555873692035675049e-02,-2.086314186453819275e-02,4.145136848092079163e-02,8.595770224928855896e-03,5.405226349830627441e-02,7.278364151716232300e-02,6.129270792007446289e-02,-6.715130060911178589e-02,9.840325266122817993e-02,-7.329564541578292847e-02,-4.983950639143586159e-04,-2.040701359510421753e-02,8.872926980257034302e-02,1.416708226315677166e-03,2.119450643658638000e-02,3.607080504298210144e-02,-5.291824415326118469e-02,1.404374279081821442e-02,3.427205979824066162e-02,-3.067329339683055878e-02,2.332679554820060730e-02,-3.863710165023803711e-02,-6.443472951650619507e-02,-1.945242732763290405e-01,1.957719586789608002e-02,-7.294360082596540451e-03,2.358709648251533508e-02,4.003793746232986450e-02,5.692572519183158875e-02,4.998829960823059082e-02,-2.840290404856204987e-02,2.243989519774913788e-02,2.019910141825675964e-02,-2.279767952859401703e-02,2.089167013764381409e-02,-1.567246578633785248e-02,2.164647215977311134e-03,2.217173576354980469e-02,-3.162730485200881958e-02,-1.443362701684236526e-02,-4.738511517643928528e-02,-9.085443802177906036e-03,8.352611958980560303e-02,8.706689625978469849e-02,1.540363114327192307e-02,-4.805652797222137451e-02,-6.996334344148635864e-02,2.070150338113307953e-02,-2.084824629127979279e-02,-1.878781244158744812e-02,4.608909413218498230e-02,9.364889562129974365e-02,-7.575564831495285034e-02,-3.290739655494689941e-02,-1.873262040317058563e-02,-4.365874081850051880e-02,1.608426868915557861e-02,2.211407385766506195e-02,-1.147397384047508240e-01,-5.576325580477714539e-02,-3.663317114114761353e-02,8.541490882635116577e-03,-1.378973107784986496e-02,-1.180470362305641174e-02,4.620645567774772644e-02,-8.627801202237606049e-03,1.413914840668439865e-02,2.300871908664703369e-02,1.399851776659488678e-02,9.909394197165966034e-03,-1.549383014207705855e-04,-7.724521309137344360e-02,4.105156287550926208e-02,4.682027921080589294e-02,1.772057265043258667e-02,-9.391012042760848999e-02,-2.921097911894321442e-02,-7.366722822189331055e-02,3.020696714520454407e-02,-4.937989637255668640e-03,1.881996914744377136e-02,7.432331889867782593e-02,4.369040951132774353e-02,1.829836703836917877e-02,4.756974801421165466e-02,-3.369084000587463379e-02,5.140758678317070007e-02,2.246723882853984833e-02,4.690998792648315430e-02,-1.168495975434780121e-02,-8.355402387678623199e-03,-6.120803579688072205e-02,-5.007598549127578735e-02,2.187248133122920990e-02,-3.398238867521286011e-02,-2.514223195612430573e-02,6.054088938981294632e-03,-4.740039631724357605e-02,-1.468288153409957886e-02,-5.405559018254280090e-02,1.994797930819913745e-04,-7.786469906568527222e-02,3.990317508578300476e-02,-2.715351060032844543e-02,-1.114971265196800232e-01,7.196818944066762924e-03,1.050225719809532166e-01,-4.211924597620964050e-02,1.585571616888046265e-01,8.413313329219818115e-02,5.408174917101860046e-02,-7.530070841312408447e-02,-4.866448417305946350e-02,1.183390617370605469e-02,-9.215156733989715576e-02,6.484712660312652588e-02,3.283756598830223083e-02,-9.761277586221694946e-02,-9.568089246749877930e-02,-1.060865744948387146e-01,-4.101380240172147751e-03,-2.511957287788391113e-02,2.670135581865906715e-03
-1.593140326440334320e-02,1.963403634727001190e-02,-3.983728121966123581e-03,-5.505362898111343384e-02,-6.031535938382148743e-02,5.046385806053876877e-03,7.133414596319198608e-02,6.369365006685256958e-02,-2.766637504100799561e-02,-5.904139205813407898e-02,-1.468825247138738632e-02,-2.389366179704666138e-02,-2.383216843008995056e-02,2.154671773314476013e-02,5.040097516030073166e-03,4.376761987805366516e-02,1.987133733928203583e-02,2.886044420301914215e-02,-9.363506920635700226e-03,1.065422818064689636e-01,-5.484537221491336823e-03,-5.470563098788261414e-02,5.540879443287849426e-03,1.611470244824886322e-02,5.325468373484909534e-04,-1.039018556475639343e-01,-5.826429277658462524e-02,8.347845822572708130e-02,5.669995024800300598e-02,2.147488854825496674e-02,-7.882202975451946259e-03,-8.798913098871707916e-03,6.680392473936080933e-02,-6.590098142623901367e-02,1.682197675108909607e-03,-1.595322787761688232e-02,2.111613564193248749e-02,-1.383735388517379761e-01,7.624439429491758347e-03,4.256070777773857117e-02,3.917992487549781799e-02,-3.283388912677764893e-02,-2.148613706231117249e-02,1.170020317658782005e-03,6.727600842714309692e-02,-5.512183532118797302e-02,-1.384116262197494507e-01,1.338127255439758301e-02,3.558230400085449219e-02,-3.936081379652023315e-02,1.273001171648502350e-02,-1.245487295091152191e-02,8.649475127458572388e-02,-1.923197880387306213e-02,-3.747783228754997253e-02,3.648906573653221130e-02,4.524325206875801086e-02,-3.850027546286582947e-02,8.961511403322219849e-02,6.989582628011703491e-02,2.242911793291568756e-02,-4.975912719964981079e-02,4.178460314869880676e-02,-3.180048987269401550e-02,-1.261094063520431519e-01,-1.002238690853118896e-02,-5.461822822690010071e-02,5.988055467605590820e-02,8.307033777236938477e-02,1.782964216545224190e-03,1.590008474886417389e-02,1.486941426992416382e-02,3.362371399998664856e-02,3.592524677515029907e-02,-8.419199846684932709e-03,-1.842341199517250061e-02,7.835336029529571533e-03,-9.509257040917873383e-03,-4.376679658889770508e-02,1.541246753185987473e-02,-2.152521722018718719e-02,2.559853531420230865e-02,2.734365873038768768e-02,3.305334970355033875e-02,1.722245663404464722e-01,-8.550464361906051636e-02,-4.059473425149917603e-02,5.587390065193176270e-02,-5.710040405392646790e-02,-1.111510396003723145e-01,-1.165321022272109985e-01,6.245218589901924133e-02,6.971876323223114014e-02,-1.630697958171367645e-02,7.300333678722381592e-02,-1.696027070283889771e-02,1.220828667283058167e-02,-1.666233129799365997e-02,-1.479329913854598999e-02,1.845093071460723877e-02,2.925052307546138763e-02,1.354333013296127319e-02,2.912901714444160461e-02,-3.336377814412117004e-02,-7.622047513723373413e-02,-2.868772251531481743e-03,-6.643591076135635376e-02,-3.297289833426475525e-02,2.856783382594585419e-02,-4.822841659188270569e-02,9.352006018161773682e-03,-6.037051230669021606e-02,6.927023059688508511e-04,-5.404841899871826172e-02,6.801692396402359009e-02,4.622717574238777161e-02,-1.191521994769573212e-02,-2.948991954326629639e-03,-5.983095150440931320e-03,5.482962727546691895e-02,6.030959542840719223e-03,2.160505019128322601e-02,5.111242085695266724e-02,-2.995725534856319427e-02,7.723044604063034058e-03,2.872589230537414551e-02,4.206864535808563232e-02,1.329331565648317337e-02
-4.764286801218986511e-02,-1.083638593554496765e-01,-4.907049611210823059e-02,-1.494159689173102379e-03,-9.462149813771247864e-03,3.410315141081809998e-02,-5.734803900122642517e-02,6.734736380167305470e-04,2.545064687728881836e-02,-5.415965244174003601e-02,5.142660811543464661e-02,-1.420989166945219040e-02,4.617385275196284056e-04,-4.425543174147605896e-02,-9.820324368774890900e-03,-2.308785542845726013e-02,4.062497057020664215e-03,-1.344058848917484283e-02,5.018844828009605408e-02,-5.794456228613853455e-02,-3.561000153422355652e-02,-1.229211408644914627e-02,-8.094577491283416748e-02,-1.260501146316528320e-01,-2.318312041461467743e-02,-3.403159603476524353e-02,2.299056388437747955e-02,-5.382619053125381470e-02,-9.344927966594696045e-03,-5.681164935231208801e-02,-1.377542316913604736e-02,-3.285902738571166992e-02,-3.461581468582153320e-02,-2.141712605953216553e-02,-3.225770220160484314e-02,2.583146095275878906e-02,2.360368147492408752e-02,-1.142295636236667633e-02,-1.831614784896373749e-02,2.438154630362987518e-02,-9.692389518022537231e-02,-5.227357894182205200e-02,-2.090580575168132782e-02,2.065529860556125641e-02,-5.835644900798797607e-03,4.638085514307022095e-02,3.412188962101936340e-02,-4.921252280473709106e-02,-3.184195607900619507e-02,-2.071651071310043335e-02,5.561729148030281067e-02,-8.168650418519973755e-02,-2.154709957540035248e-02,2.136563137173652649e-02,-1.160106714814901352e-02,1.077133044600486755e-01,-5.893320310860872269e-03,1.244349963963031769e-02,-1.870624348521232605e-02,-3.520285338163375854e-02,5.733835697174072266e-02,-5.991168692708015442e-02,2.972513809800148010e-02,-1.440223958343267441e-02,-2.476515620946884155e-02,-2.210082672536373138e-02,2.140218950808048248e-02,2.112809754908084869e-02,-8.622838556766510010e-02,7.342067547142505646e-03,5.852283164858818054e-02,7.864036597311496735e-03,3.614195436239242554e-02,-5.966160446405410767e-03,1.261522918939590454e-01,-6.726648658514022827e-02,-3.444480523467063904e-02,-9.080135077238082886e-02,1.790452934801578522e-02,8.079163730144500732e-02,-8.184608817100524902e-02,-2.554576611146330833e-03,7.214928511530160904e-03,1.213882770389318466e-02,6.860674917697906494e-02,1.812827587127685547e-02,-4.841589555144309998e-02,-1.114893332123756409e-02,7.197732920758426189e-04,-3.902244195342063904e-02,3.986744210124015808e-02,-5.661183595657348633e-02,-9.129680693149566650e-02,-1.313877850770950317e-02,-3.674179082736372948e-03,8.993276394903659821e-03,3.786303475499153137e-02,-3.864931408315896988e-03,-1.177969202399253845e-02,1.003598049283027649e-02,-2.531777694821357727e-02,-1.391940116882324219e-01,-4.029952455312013626e-03,1.288601607084274292e-01,1.476892549544572830e-02,3.196124359965324402e-02,5.512968637049198151e-03,5.438590794801712036e-02,3.839306533336639404e-02,-6.566294282674789429e-02,1.066001318395137787e-02,-3.746880218386650085e-02,1.671873405575752258e-02,-3.716027364134788513e-02,4.952754452824592590e-02,-2.811657264828681946e-02,3.794480115175247192e-02,1.477137394249439240e-02,7.248352747410535812e-03,2.499485388398170471e-02,-6.381323188543319702e-02,-2.365574985742568970e-02,2.811470068991184235e-02,9.870777279138565063e-02,5.585139617323875427e-02,1.101775541901588440e-01,-4.529571533203125000e-02,5.546217784285545349e-02
6.251297146081924438e-02,-3.213406354188919067e-02,-1.704487763345241547e-02,2.386659942567348480e-02,4.260928556323051453e-02,8.442120999097824097e-02,-9.426205419003963470e-03,2.339028380811214447e-02,-3.681126236915588379e-02,7.435036357492208481e-03,8.906117826700210571e-02,-3.193509206175804138e-02,7.674936950206756592e-02,-1.231180969625711441e-02,-9.184447117149829865e-03,-9.753867983818054199e-02,-9.770646691322326660e-03,-3.191769868135452271e-02,3.210378810763359070e-02,-7.270129770040512085e-02,-3.271872177720069885e-03,-6.701617687940597534e-02,-2.429658174514770508e-02,-4.525217041373252869e-02,1.025386061519384384e-02,4.243248328566551208e-02,1.115432381629943848e-02,6.053010374307632446e-02,-6.052909046411514282e-02,-1.957996189594268799e-02,3.572711721062660217e-02,-7.128778100013732910e-02,2.686938457190990448e-02,1.228128280490636826e-02,1.239234488457441330e-02,-9.369562380015850067e-03,6.854684650897979736e-02,1.045731361955404282e-02,-7.991281151771545410e-02,-1.864382252097129822e-02,4.286104440689086914e-02,8.565656840801239014e-02,8.612874895334243774e-03,4.128434136509895325e-02,2.776924753561615944e-03,-3.299691900610923767e-02,-2.066890709102153778e-02,3.152604028582572937e-02,7.653631269931793213e-02,-1.265887287445366383e-03,1.191501021385192871e-01,3.932743147015571594e-02,-1.027546152472496033e-01,-5.197447165846824646e-02,1.114461384713649750e-02,2.710324525833129883e-02,4.007916897535324097e-02,9.114866144955158234e-03,2.173596620559692383e-02,-2.735469676554203033e-02,5.720246955752372742e-02,-2.391128055751323700e-02,2.550409547984600067e-02,3.020286001265048981e-02,-8.913462609052658081e-02,-5.637832451611757278e-03,-4.552390798926353455e-02,4.413281753659248352e-02,3.022682666778564453e-02,-4.095147550106048584e-02,1.434517838060855865e-02,2.403768710792064667e-02,5.293544754385948181e-02,-3.647457808256149292e-02,3.014708869159221649e-02,-3.188699111342430115e-02,5.324190482497215271e-02,4.074360430240631104e-02,5.193324014544487000e-02,1.568988896906375885e-03,-2.535323239862918854e-02,-1.360703166574239731e-02,-1.161006614565849304e-01,-5.084229633212089539e-02,-4.963427409529685974e-02,8.365525864064693451e-03,-1.151136308908462524e-01,-6.224116683006286621e-02,-6.424629688262939453e-02,-4.449046682566404343e-03,-1.101084426045417786e-02,2.513577416539192200e-02,1.699985004961490631e-02,-4.810351878404617310e-02,2.853557933121919632e-03,-4.277742002159357071e-03,6.334275007247924805e-02,3.017381392419338226e-02,-7.657080143690109253e-02,3.881489485502243042e-02,4.789200052618980408e-02,-8.306896686553955078e-02,-4.427572712302207947e-02,6.754480302333831787e-03,-2.824291400611400604e-02,-6.430421024560928345e-02,1.935460604727268219e-03,1.996295712888240814e-02,1.065969187766313553e-02,6.996935606002807617e-02,3.943901043385267258e-03,-1.278794258832931519e-01,-9.827526286244392395e-03,-5.665881186723709106e-02,-2.321348153054714203e-02,2.178844623267650604e-02,8.287615329027175903e-02,-7.245369255542755127e-02,4.312610998749732971e-02,-7.417357061058282852e-03,-6.224172189831733704e-03,1.485948543995618820e-02,-5.507702380418777466e-02,-1.248115114867687225e-02,3.706370666623115540e-02,3.210976347327232361e-02,-2.221644483506679535e-02,1.712925918400287628e-02
1.910224370658397675e-02,4.043922945857048035e-02,-6.223426386713981628e-02,-8.592590689659118652e-02,3.289536014199256897e-02,-2.087984606623649597e-02,-6.902483850717544556e-02,-4.133929684758186340e-02,-7.348293066024780273e-02,3.996006771922111511e-02,1.425528805702924728e-02,-6.848586257547140121e-03,3.771600872278213501e-02,-2.123209647834300995e-02,-2.360421046614646912e-02,2.756798267364501953e-02,2.923044608905911446e-03,3.632450103759765625e-02,3.736414387822151184e-02,-6.157271936535835266e-02,-7.091729342937469482e-02,2.262763865292072296e-02,1.606591045856475830e-02,-5.853817611932754517e-02,-7.996806874871253967e-03,1.226094434969127178e-03,-2.115350402891635895e-02,3.447548672556877136e-02,-6.334076076745986938e-02,3.182273358106613159e-02,5.234202370047569275e-02,3.808715194463729858e-02,6.548808515071868896e-02,5.792827531695365906e-02,-2.326519601047039032e-02,-1.971333473920822144e-02,5.528140068054199219e-02,-4.738370701670646667e-02,1.536105852574110031e-02,-5.019814893603324890e-02,-3.361292555928230286e-02,6.591009348630905151e-02,4.767147079110145569e-02,-3.618974611163139343e-02,5.028588697314262390e-02,-4.534920677542686462e-02,6.201195064932107925e-03,2.424804307520389557e-02,-6.461121886968612671e-02,1.109400764107704163e-02,5.217473371885716915e-04,1.810017041862010956e-02,-4.425986856222152710e-02,-2.064294926822185516e-02,2.075953176245093346e-03,2.987716905772686005e-02,-1.052450463175773621e-01,-4.891614988446235657e-02,-8.278951980173587799e-03,-1.133153066039085388e-01,4.269618541002273560e-02,-1.658074744045734406e-02,1.747519709169864655e-02,-6.951083987951278687e-02,-1.061814054846763611e-01,5.594148766249418259e-03,1.953862234950065613e-02,4.240098968148231506e-02,-1.162873432040214539e-01,-1.359629482030868530e-01,-9.980242699384689331e-03,2.278584428131580353e-02,-1.253633946180343628e-01,-5.726116895675659180e-02,3.077775798738002777e-02,6.040716916322708130e-02,6.180045753717422485e-02,2.413889393210411072e-02,1.071668267250061035e-01,-1.400723960250616074e-02,-3.205059841275215149e-02,5.072322115302085876e-02,-4.197732359170913696e-02,5.268234759569168091e-02,-8.563487790524959564e-03,-1.602127589285373688e-02,4.455932974815368652e-02,-2.588118612766265869e-02,2.297417260706424713e-02,-6.617228034883737564e-03,6.279939413070678711e-02,-1.998661644756793976e-02,-4.353299736976623535e-02,-4.981638491153717041e-02,2.918276749551296234e-02,-1.987045630812644958e-02,-1.731809414923191071e-02,-9.532918035984039307e-02,-1.351379323750734329e-02,-5.719497799873352051e-02,-3.930860757827758789e-02,-8.656718768179416656e-03,-1.466581691056489944e-02,-4.534649197012186050e-03,-2.869024872779846191e-02,2.041593752801418304e-02,-4.721291735768318176e-02,-2.125599421560764313e-02,6.243974715471267700e-02,-3.283466398715972900e-02,-7.832414656877517700e-02,4.747155308723449707e-02,4.358918592333793640e-02,1.204918697476387024e-02,1.700760680250823498e-03,-3.925695642828941345e-02,4.015042632818222046e-02,7.528875768184661865e-02,6.003306433558464050e-02,2.010422013700008392e-02,-4.362874850630760193e-02,-2.142724953591823578e-02,-2.129125408828258514e-02,-1.090354099869728088e-01,5.435712169855833054e-03,-4.218699410557746887e-02,-4.675541818141937256e-02,-8.671412244439125061e-03
-5.915462598204612732e-02,-1.545043196529150009e-02,-2.149872668087482452e-02,3.777183592319488525e-02,-5.426322296261787415e-02,2.565866149961948395e-02,1.227531954646110535e-02,-3.805094212293624878e-02,-1.053697094321250916e-01,8.831111714243888855e-03,-4.550532624125480652e-02,-3.836120665073394775e-02,-2.615562081336975098e-02,3.189754486083984375e-02,8.347816765308380127e-02,1.880595088005065918e-02,6.375195086002349854e-02,3.175111114978790283e-02,-5.826689675450325012e-02,6.047009304165840149e-02,6.442262977361679077e-02,7.893358357250690460e-03,9.393171221017837524e-02,5.740938708186149597e-02,5.752716585993766785e-02,2.239113859832286835e-02,3.439788892865180969e-02,-2.611994743347167969e-02,1.014664303511381149e-02,5.649494007229804993e-02,3.650192543864250183e-02,7.367328740656375885e-03,-1.072184275835752487e-02,-1.997612603008747101e-02,9.256734512746334076e-03,3.940365836024284363e-02,-5.782486125826835632e-02,-4.921950772404670715e-02,1.763718551956117153e-03,2.018402330577373505e-02,-6.299634929746389389e-03,-3.736072778701782227e-02,-1.231870427727699280e-01,1.207211147993803024e-02,1.079522594809532166e-01,-1.705608889460563660e-02,-8.446430414915084839e-02,-2.871263027191162109e-02,-3.763523325324058533e-02,-1.451435964554548264e-02,-8.766518533229827881e-02,4.375619348138570786e-03,7.099615037441253662e-02,3.410931304097175598e-02,6.456129997968673706e-02,-7.853925973176956177e-02,1.544730388559401035e-03,-4.663602635264396667e-02,4.772214591503143311e-02,-2.469242177903652191e-02,5.206722766160964966e-03,1.055026613175868988e-02,-2.361086197197437286e-02,5.001155193895101547e-03,1.691762730479240417e-02,3.298131003975868225e-02,5.972222611308097839e-02,-3.828881680965423584e-02,4.716790094971656799e-02,-4.418721422553062439e-02,-1.881749555468559265e-02,3.139967098832130432e-03,2.153450064361095428e-02,2.885163202881813049e-02,6.792952865362167358e-02,5.798592232167720795e-03,4.408927634358406067e-02,-3.194568306207656860e-02,-1.400868035852909088e-02,4.610164463520050049e-02,4.087335988879203796e-02,1.622242480516433716e-02,1.370725780725479126e-02,3.391335532069206238e-02,3.517236933112144470e-02,-1.224685739725828171e-02,1.448708027601242065e-02,2.860328555107116699e-02,1.011417657136917114e-01,-4.672653507441282272e-03,-1.694453693926334381e-02,5.008781701326370239e-02,-1.289300341159105301e-02,-1.662477478384971619e-02,-5.722977593541145325e-02,-1.718534529209136963e-02,-1.219148281961679459e-02,-4.764465615153312683e-02,-2.544727362692356110e-02,3.268836531788110733e-03,3.700362145900726318e-02,-1.399575173854827881e-01,2.940634451806545258e-02,-2.248532138764858246e-02,-3.729840740561485291e-02,-6.209976598620414734e-02,-6.297965347766876221e-02,-1.509858528152108192e-03,-1.031403988599777222e-02,-2.521037124097347260e-02,-3.264088556170463562e-02,4.264098033308982849e-02,-8.634604513645172119e-03,9.364721924066543579e-02,-2.810524776577949524e-02,-8.388423360884189606e-03,7.113265246152877808e-02,4.209121223539113998e-03,-8.041401952505111694e-02,7.285057753324508667e-02,-1.732063852250576019e-02,2.225890755653381348e-02,1.687459880486130714e-03,3.881344571709632874e-02,-7.060073316097259521e-03,-2.679833211004734039e-02,-1.585682108998298645e-02,6.069922447204589844e-02
-1.190068945288658142e-02,-3.579815849661827087e-02,8.418326079845428467e-02,7.639785856008529663e-02,-1.564915478229522705e-02,-1.857675425708293915e-02,6.603056192398071289e-02,-5.639025196433067322e-02,-3.569742664694786072e-02,6.215290352702140808e-02,3.016049228608608246e-02,-2.252120710909366608e-02,2.359684742987155914e-02,-2.842184714972972870e-02,-6.911836564540863037e-02,4.526640754193067551e-03,-6.350932270288467407e-02,-5.503739044070243835e-02,-4.370146617293357849e-02,6.103632971644401550e-02,-2.208955399692058563e-02,4.591514356434345245e-03,-1.211342494934797287e-02,-1.054444313049316406e-01,-4.394399747252464294e-02,-4.297568462789058685e-03,2.711043320596218109e-02,-1.418454106897115707e-02,-6.070106290280818939e-03,1.450315862894058228e-02,-2.624168060719966888e-02,-3.967174515128135681e-02,8.800673298537731171e-03,-5.070641636848449707e-02,-9.475525468587875366e-02,-3.061466850340366364e-02,7.082170993089675903e-02,5.638532713055610657e-02,-2.462097071111202240e-02,4.359277710318565369e-02,6.660736631602048874e-03,2.293938212096691132e-02,8.156954310834407806e-03,7.218612823635339737e-03,-2.324800379574298859e-02,-9.006320685148239136e-02,3.776313364505767822e-02,-5.697979405522346497e-02,-2.589513920247554779e-02,-1.635707356035709381e-02,5.277718231081962585e-02,2.303600125014781952e-02,7.657393068075180054e-02,3.239012509584426880e-02,6.144178658723831177e-02,2.604840695858001709e-02,6.136908009648323059e-02,2.159328758716583252e-02,5.738961696624755859e-02,-3.372461721301078796e-02,2.279506251215934753e-02,-2.734512463212013245e-02,-7.980474084615707397e-02,-1.921578310430049896e-02,1.280049681663513184e-01,-9.374543093144893646e-03,4.959895834326744080e-02,-3.544292971491813660e-02,-4.386733751744031906e-03,-3.866482153534889221e-02,2.975119464099407196e-02,1.904602721333503723e-02,-2.413755469024181366e-02,-8.860803209245204926e-03,-1.006433647125959396e-02,5.194254592061042786e-02,7.345774769783020020e-02,9.809707989916205406e-04,-9.484040550887584686e-03,2.412672154605388641e-02,3.736523911356925964e-03,3.459497913718223572e-02,2.212445065379142761e-02,4.879991337656974792e-02,-4.091534391045570374e-02,1.525217946618795395e-02,8.543622493743896484e-02,-2.303852466866374016e-03,-1.064913421869277954e-01,-1.163950189948081970e-01,1.717896573245525360e-02,7.176266610622406006e-02,-5.768468976020812988e-02,5.357611179351806641e-02,2.284942008554935455e-02,-2.862760424613952637e-02,4.374866373836994171e-03,7.243832200765609741e-02,-9.576798975467681885e-02,1.368315983563661575e-02,-4.994286969304084778e-02,4.758274555206298828e-02,-2.708877064287662506e-02,4.554410278797149658e-02,7.022523134946823120e-02,-1.465517934411764145e-02,3.617088077589869499e-03,-5.399089679121971130e-02,-6.506939977407455444e-02,6.171654537320137024e-02,4.836033284664154053e-02,1.899228617548942566e-02,8.589611202478408813e-02,-6.035747937858104706e-03,-1.007390022277832031e-01,-1.000623684376478195e-03,-6.160452496260404587e-03,-6.013047322630882263e-02,4.758706316351890564e-02,-7.757341116666793823e-02,-4.208891093730926514e-02,2.174642868340015411e-02,-9.171830606646835804e-04,1.659892313182353973e-02,-7.048578560352325439e-02,3.073949925601482391e-02,5.342834070324897766e-02,-2.875618450343608856e-02
-4.638123139739036560e-02,1.202310901135206223e-02,5.279665067791938782e-02,-5.180326849222183228e-02,7.482086867094039917e-02,4.518254194408655167e-03,-4.237962886691093445e-02,2.764070034027099609e-02,3.484541666693985462e-04,-7.812933996319770813e-03,-7.423528283834457397e-02,-7.328271120786666870e-02,3.243574500083923340e-02,-1.957959868013858795e-02,6.305833905935287476e-02,-8.119167387485504150e-02,4.534351639449596405e-03,3.626508265733718872e-02,2.417015843093395233e-02,1.660391092300415039e-01,-8.359802514314651489e-02,-3.862143680453300476e-02,-4.666816070675849915e-02,5.102625000290572643e-04,-5.565353855490684509e-02,-6.567093078047037125e-03,7.903855293989181519e-02,5.101193860173225403e-02,1.961778663098812103e-02,1.560461986809968948e-02,-2.015321888029575348e-02,1.268897613044828176e-04,-2.505317889153957367e-02,3.736029192805290222e-02,3.091599559411406517e-03,-9.854565560817718506e-02,9.254669398069381714e-02,-5.113848671317100525e-02,3.869646787643432617e-02,-9.893867373466491699e-02,-2.057944610714912415e-02,7.578863948583602905e-02,-6.820391863584518433e-03,8.705790340900421143e-02,6.053292751312255859e-02,-3.428255766630172729e-02,-8.541080169379711151e-03,7.179984450340270996e-02,-1.292787939310073853e-01,3.162221238017082214e-02,-8.713404834270477295e-02,9.971775859594345093e-02,-4.947099089622497559e-02,-5.994398519396781921e-02,2.064552903175354004e-02,6.096941232681274414e-02,1.385569758713245392e-02,-4.939752817153930664e-02,-9.247124940156936646e-02,-1.461717672646045685e-02,-7.447602599859237671e-02,-1.042158692143857479e-03,1.111276373267173767e-01,-6.474681943655014038e-02,-6.728032231330871582e-02,1.763823628425598145e-02,1.060801465064287186e-02,-2.876622974872589111e-02,-2.670310251414775848e-02,-5.601628497242927551e-02,6.339439656585454941e-03,2.999139204621315002e-02,-3.683043643832206726e-02,-2.299415320158004761e-02,-1.126108411699533463e-02,1.441906439140439034e-03,1.237638145685195923e-01,2.630736306309700012e-02,9.800040861591696739e-04,-3.181587159633636475e-02,-1.255902834236621857e-02,-5.732027813792228699e-02,5.249149352312088013e-02,-1.397974230349063873e-02,-1.128104235976934433e-02,-1.310447696596384048e-03,-4.925912246108055115e-02,-5.932262167334556580e-03,2.050551399588584900e-02,-1.377096772193908691e-02,6.480319052934646606e-02,1.256581395864486694e-02,-6.885307282209396362e-02,6.098471581935882568e-03,-1.586635969579219818e-02,-6.824511289596557617e-02,9.382179938256740570e-03,4.547392949461936951e-03,-4.892513155937194824e-02,-1.024685148149728775e-02,-1.062870025634765625e-01,-3.836034983396530151e-02,-4.209510609507560730e-02,-2.235583029687404633e-02,-1.178487483412027359e-02,1.146749127656221390e-02,3.782926825806498528e-03,-4.801457747817039490e-02,7.654369622468948364e-02,-6.592323631048202515e-02,2.781837247312068939e-02,-9.853748232126235962e-02,1.582151092588901520e-02,-4.251627251505851746e-02,-1.471523102372884750e-02,-3.046230180189013481e-03,3.229044750332832336e-02,-1.458531618118286133e-02,2.954975701868534088e-02,6.076028570532798767e-02,4.551459569483995438e-03,-3.449279814958572388e-03,-3.414843976497650146e-02,-7.579325139522552490e-02,-3.289517015218734741e-02,-4.850722476840019226e-02,-2.140646392945200205e-04,1.861628703773021698e-02
1.502457726746797562e-02,-2.285815030336380005e-02,-3.236864460632205009e-03,-2.504901029169559479e-02,-9.564481675624847412e-02,1.443702448159456253e-02,-3.045968152582645416e-02,2.344714105129241943e-02,-4.259689897298812866e-02,-2.827897481620311737e-02,-1.236719451844692230e-02,3.222566470503807068e-02,6.008663773536682129e-02,-2.845438756048679352e-02,-5.624658986926078796e-02,-1.782628009095788002e-03,-7.025434821844100952e-02,3.202544525265693665e-02,-1.546677667647600174e-02,1.027158810757100582e-03,7.117809355258941650e-02,-8.074299991130828857e-02,3.072581999003887177e-02,2.410117350518703461e-02,-2.157319895923137665e-02,9.442541003227233887e-02,-7.432690355926752090e-03,7.605881430208683014e-03,-7.480282336473464966e-03,3.112480603158473969e-02,5.372944474220275879e-02,-6.900902837514877319e-02,-1.047726273536682129e-01,5.880317091941833496e-02,3.322914615273475647e-02,5.151419714093208313e-02,-2.683185972273349762e-02,1.467835344374179840e-02,-8.371355943381786346e-03,2.468291670083999634e-03,6.664767116308212280e-02,1.121819764375686646e-01,-4.698432981967926025e-02,7.631510496139526367e-02,-8.103900472633540630e-04,-7.305126637220382690e-02,-6.099277734756469727e-02,-2.254760451614856720e-02,-2.739406563341617584e-02,9.154515713453292847e-02,-1.497562974691390991e-02,2.703192830085754395e-02,-4.012725502252578735e-02,2.515653334558010101e-02,8.430773019790649414e-02,-4.959213733673095703e-02,2.296856604516506195e-02,4.595714434981346130e-02,-4.486656188964843750e-02,3.921905905008316040e-02,-1.131424121558666229e-02,6.369733065366744995e-02,9.166753850877285004e-03,-8.960179984569549561e-03,2.378020994365215302e-02,5.125963687896728516e-02,-8.389570564031600952e-02,-1.145616546273231506e-02,4.027173295617103577e-02,-4.259519279003143311e-02,-9.267026558518409729e-03,2.125666663050651550e-02,6.789193302392959595e-02,-2.064644731581211090e-02,1.075958609580993652e-01,-6.049804762005805969e-02,3.287692740559577942e-02,2.883740328252315521e-02,-2.752069942653179169e-02,9.510915726423263550e-02,-5.769309028983116150e-02,2.975626289844512939e-02,1.686233095824718475e-02,-2.524801297113299370e-03,-2.226702310144901276e-02,3.118759766221046448e-02,9.638557210564613342e-03,-3.577592596411705017e-02,-7.732614409178495407e-03,1.360249239951372147e-02,-1.077896729111671448e-01,-1.668096333742141724e-02,1.417296566069126129e-02,-9.352654218673706055e-03,-4.245148599147796631e-02,3.318659588694572449e-02,1.823037862777709961e-02,4.760250449180603027e-02,5.751239880919456482e-02,-1.299365311861038208e-01,8.272129110991954803e-03,4.529933258891105652e-02,2.850583568215370178e-02,6.567886471748352051e-02,-4.078796878457069397e-02,-2.108165994286537170e-03,8.959764818428084254e-05,4.686763975769281387e-03,3.465178608894348145e-02,-3.034036234021186829e-02,-6.569182127714157104e-02,3.165397793054580688e-02,-5.104072764515876770e-02,-9.507069364190101624e-03,1.767829619348049164e-02,-7.519885152578353882e-02,1.153623014688491821e-01,-1.921407319605350494e-02,7.853847928345203400e-03,-1.764972880482673645e-02,-7.727912068367004395e-02,-1.053612157702445984e-01,-3.268622606992721558e-02,5.504575371742248535e-02,7.873773574829101562e-03,8.113794773817062378e-02,-6.405760347843170166e-02,4.882637411355972290e-02
